digraph Tree {
node [shape=box] ;
0 [label="PaymentMethod <= 0.5\ngini = 0.393\nsamples = 5282\nvalue = [3864, 1418]"] ;
1 [label="DeviceProtection <= 0.5\ngini = 0.49\nsamples = 2915\nvalue = [1664, 1251]"] ;
0 -> 1 [labeldistance=2.5, labelangle=45, headlabel="True"] ;
2 [label="MultipleLines <= 10.5\ngini = 0.5\nsamples = 1978\nvalue = [961, 1017]"] ;
1 -> 2 ;
3 [label="OnlineBackup <= 0.5\ngini = 0.462\nsamples = 929\nvalue = [337, 592]"] ;
2 -> 3 ;
4 [label="TotalCharges <= 212.65\ngini = 0.5\nsamples = 358\nvalue = [178, 180]"] ;
3 -> 4 ;
5 [label="MultipleLines <= 6.5\ngini = 0.488\nsamples = 253\nvalue = [107, 146]"] ;
4 -> 5 ;
6 [label="StreamingMovies <= 1.0\ngini = 0.484\nsamples = 248\nvalue = [102, 146]"] ;
5 -> 6 ;
7 [label="TotalCharges <= 24.5\ngini = 0.472\nsamples = 212\nvalue = [81, 131]"] ;
6 -> 7 ;
8 [label="MonthlyCharges <= 24.325\ngini = 0.32\nsamples = 5\nvalue = [4, 1]"] ;
7 -> 8 ;
9 [label="tenure <= 2.5\ngini = 0.5\nsamples = 2\nvalue = [1, 1]"] ;
8 -> 9 ;
10 [label="gini = 0.0\nsamples = 1\nvalue = [0, 1]"] ;
9 -> 10 ;
11 [label="gini = 0.0\nsamples = 1\nvalue = [1, 0]"] ;
9 -> 11 ;
12 [label="gini = 0.0\nsamples = 3\nvalue = [3, 0]"] ;
8 -> 12 ;
13 [label="TechSupport <= 1.0\ngini = 0.467\nsamples = 207\nvalue = [77, 130]"] ;
7 -> 13 ;
14 [label="OnlineSecurity <= 0.5\ngini = 0.452\nsamples = 174\nvalue = [60, 114]"] ;
13 -> 14 ;
15 [label="MonthlyCharges <= 44.85\ngini = 0.48\nsamples = 105\nvalue = [42, 63]"] ;
14 -> 15 ;
16 [label="tenure <= 2.5\ngini = 0.48\nsamples = 35\nvalue = [21, 14]"] ;
15 -> 16 ;
17 [label="SeniorCitizen <= 0.5\ngini = 0.413\nsamples = 24\nvalue = [17, 7]"] ;
16 -> 17 ;
18 [label="gini = 0.0\nsamples = 10\nvalue = [10, 0]"] ;
17 -> 18 ;
19 [label="MonthlyCharges <= 43.575\ngini = 0.5\nsamples = 14\nvalue = [7, 7]"] ;
17 -> 19 ;
20 [label="gini = 0.0\nsamples = 2\nvalue = [0, 2]"] ;
19 -> 20 ;
21 [label="TotalCharges <= 134.95\ngini = 0.486\nsamples = 12\nvalue = [7, 5]"] ;
19 -> 21 ;
22 [label="TotalCharges <= 91.35\ngini = 0.5\nsamples = 10\nvalue = [5, 5]"] ;
21 -> 22 ;
23 [label="PhoneService <= 0.5\ngini = 0.469\nsamples = 8\nvalue = [5, 3]"] ;
22 -> 23 ;
24 [label="Dependents <= 0.5\ngini = 0.32\nsamples = 5\nvalue = [4, 1]"] ;
23 -> 24 ;
25 [label="gini = 0.0\nsamples = 4\nvalue = [4, 0]"] ;
24 -> 25 ;
26 [label="gini = 0.0\nsamples = 1\nvalue = [0, 1]"] ;
24 -> 26 ;
27 [label="TotalCharges <= 67.225\ngini = 0.444\nsamples = 3\nvalue = [1, 2]"] ;
23 -> 27 ;
28 [label="gini = 0.0\nsamples = 2\nvalue = [0, 2]"] ;
27 -> 28 ;
29 [label="gini = 0.0\nsamples = 1\nvalue = [1, 0]"] ;
27 -> 29 ;
30 [label="gini = 0.0\nsamples = 2\nvalue = [0, 2]"] ;
22 -> 30 ;
31 [label="gini = 0.0\nsamples = 2\nvalue = [2, 0]"] ;
21 -> 31 ;
32 [label="MonthlyCharges <= 44.425\ngini = 0.463\nsamples = 11\nvalue = [4, 7]"] ;
16 -> 32 ;
33 [label="MonthlyCharges <= 44.075\ngini = 0.278\nsamples = 6\nvalue = [1, 5]"] ;
32 -> 33 ;
34 [label="MonthlyCharges <= 43.975\ngini = 0.5\nsamples = 2\nvalue = [1, 1]"] ;
33 -> 34 ;
35 [label="gini = 0.0\nsamples = 1\nvalue = [0, 1]"] ;
34 -> 35 ;
36 [label="gini = 0.0\nsamples = 1\nvalue = [1, 0]"] ;
34 -> 36 ;
37 [label="gini = 0.0\nsamples = 4\nvalue = [0, 4]"] ;
33 -> 37 ;
38 [label="TotalCharges <= 59.825\ngini = 0.48\nsamples = 5\nvalue = [3, 2]"] ;
32 -> 38 ;
39 [label="SeniorCitizen <= 0.5\ngini = 0.375\nsamples = 4\nvalue = [3, 1]"] ;
38 -> 39 ;
40 [label="gini = 0.0\nsamples = 3\nvalue = [3, 0]"] ;
39 -> 40 ;
41 [label="gini = 0.0\nsamples = 1\nvalue = [0, 1]"] ;
39 -> 41 ;
42 [label="gini = 0.0\nsamples = 1\nvalue = [0, 1]"] ;
38 -> 42 ;
43 [label="TotalCharges <= 61.0\ngini = 0.42\nsamples = 70\nvalue = [21, 49]"] ;
15 -> 43 ;
44 [label="TotalCharges <= 45.625\ngini = 0.331\nsamples = 43\nvalue = [9, 34]"] ;
43 -> 44 ;
45 [label="TotalCharges <= 45.35\ngini = 0.43\nsamples = 16\nvalue = [5, 11]"] ;
44 -> 45 ;
46 [label="Dependents <= 0.5\ngini = 0.278\nsamples = 12\nvalue = [2, 10]"] ;
45 -> 46 ;
47 [label="tenure <= 2.5\ngini = 0.165\nsamples = 11\nvalue = [1, 10]"] ;
46 -> 47 ;
48 [label="gini = 0.0\nsamples = 6\nvalue = [0, 6]"] ;
47 -> 48 ;
49 [label="TotalCharges <= 45.2\ngini = 0.32\nsamples = 5\nvalue = [1, 4]"] ;
47 -> 49 ;
50 [label="gini = 0.0\nsamples = 3\nvalue = [0, 3]"] ;
49 -> 50 ;
51 [label="SeniorCitizen <= 0.5\ngini = 0.5\nsamples = 2\nvalue = [1, 1]"] ;
49 -> 51 ;
52 [label="gini = 0.0\nsamples = 1\nvalue = [1, 0]"] ;
51 -> 52 ;
53 [label="gini = 0.0\nsamples = 1\nvalue = [0, 1]"] ;
51 -> 53 ;
54 [label="gini = 0.0\nsamples = 1\nvalue = [1, 0]"] ;
46 -> 54 ;
55 [label="tenure <= 2.5\ngini = 0.375\nsamples = 4\nvalue = [3, 1]"] ;
45 -> 55 ;
56 [label="gini = 0.0\nsamples = 1\nvalue = [0, 1]"] ;
55 -> 56 ;
57 [label="gini = 0.0\nsamples = 3\nvalue = [3, 0]"] ;
55 -> 57 ;
58 [label="MonthlyCharges <= 45.775\ngini = 0.252\nsamples = 27\nvalue = [4, 23]"] ;
44 -> 58 ;
59 [label="gini = 0.0\nsamples = 5\nvalue = [0, 5]"] ;
58 -> 59 ;
60 [label="MonthlyCharges <= 50.0\ngini = 0.298\nsamples = 22\nvalue = [4, 18]"] ;
58 -> 60 ;
61 [label="MonthlyCharges <= 49.75\ngini = 0.42\nsamples = 10\nvalue = [3, 7]"] ;
60 -> 61 ;
62 [label="gender <= 0.5\ngini = 0.346\nsamples = 9\nvalue = [2, 7]"] ;
61 -> 62 ;
63 [label="gini = 0.0\nsamples = 3\nvalue = [0, 3]"] ;
62 -> 63 ;
64 [label="MonthlyCharges <= 45.825\ngini = 0.444\nsamples = 6\nvalue = [2, 4]"] ;
62 -> 64 ;
65 [label="gini = 0.0\nsamples = 1\nvalue = [1, 0]"] ;
64 -> 65 ;
66 [label="Partner <= 0.5\ngini = 0.32\nsamples = 5\nvalue = [1, 4]"] ;
64 -> 66 ;
67 [label="gini = 0.0\nsamples = 4\nvalue = [0, 4]"] ;
66 -> 67 ;
68 [label="gini = 0.0\nsamples = 1\nvalue = [1, 0]"] ;
66 -> 68 ;
69 [label="gini = 0.0\nsamples = 1\nvalue = [1, 0]"] ;
61 -> 69 ;
70 [label="Contract <= 1.0\ngini = 0.153\nsamples = 12\nvalue = [1, 11]"] ;
60 -> 70 ;
71 [label="gini = 0.0\nsamples = 8\nvalue = [0, 8]"] ;
70 -> 71 ;
72 [label="tenure <= 2.5\ngini = 0.375\nsamples = 4\nvalue = [1, 3]"] ;
70 -> 72 ;
73 [label="gini = 0.0\nsamples = 1\nvalue = [1, 0]"] ;
72 -> 73 ;
74 [label="gini = 0.0\nsamples = 3\nvalue = [0, 3]"] ;
72 -> 74 ;
75 [label="StreamingTV <= 1.0\ngini = 0.494\nsamples = 27\nvalue = [12, 15]"] ;
43 -> 75 ;
76 [label="TotalCharges <= 77.275\ngini = 0.469\nsamples = 24\nvalue = [9, 15]"] ;
75 -> 76 ;
77 [label="gini = 0.0\nsamples = 2\nvalue = [2, 0]"] ;
76 -> 77 ;
78 [label="TotalCharges <= 198.35\ngini = 0.434\nsamples = 22\nvalue = [7, 15]"] ;
76 -> 78 ;
79 [label="Dependents <= 0.5\ngini = 0.408\nsamples = 21\nvalue = [6, 15]"] ;
78 -> 79 ;
80 [label="MonthlyCharges <= 46.325\ngini = 0.346\nsamples = 18\nvalue = [4, 14]"] ;
79 -> 80 ;
81 [label="gender <= 0.5\ngini = 0.165\nsamples = 11\nvalue = [1, 10]"] ;
80 -> 81 ;
82 [label="tenure <= 2.5\ngini = 0.444\nsamples = 3\nvalue = [1, 2]"] ;
81 -> 82 ;
83 [label="gini = 0.0\nsamples = 1\nvalue = [1, 0]"] ;
82 -> 83 ;
84 [label="gini = 0.0\nsamples = 2\nvalue = [0, 2]"] ;
82 -> 84 ;
85 [label="gini = 0.0\nsamples = 8\nvalue = [0, 8]"] ;
81 -> 85 ;
86 [label="TotalCharges <= 133.9\ngini = 0.49\nsamples = 7\nvalue = [3, 4]"] ;
80 -> 86 ;
87 [label="gini = 0.0\nsamples = 2\nvalue = [2, 0]"] ;
86 -> 87 ;
88 [label="MonthlyCharges <= 54.675\ngini = 0.32\nsamples = 5\nvalue = [1, 4]"] ;
86 -> 88 ;
89 [label="TotalCharges <= 192.2\ngini = 0.5\nsamples = 2\nvalue = [1, 1]"] ;
88 -> 89 ;
90 [label="gini = 0.0\nsamples = 1\nvalue = [1, 0]"] ;
89 -> 90 ;
91 [label="gini = 0.0\nsamples = 1\nvalue = [0, 1]"] ;
89 -> 91 ;
92 [label="gini = 0.0\nsamples = 3\nvalue = [0, 3]"] ;
88 -> 92 ;
93 [label="TotalCharges <= 132.25\ngini = 0.444\nsamples = 3\nvalue = [2, 1]"] ;
79 -> 93 ;
94 [label="gini = 0.0\nsamples = 2\nvalue = [2, 0]"] ;
93 -> 94 ;
95 [label="gini = 0.0\nsamples = 1\nvalue = [0, 1]"] ;
93 -> 95 ;
96 [label="gini = 0.0\nsamples = 1\nvalue = [1, 0]"] ;
78 -> 96 ;
97 [label="gini = 0.0\nsamples = 3\nvalue = [3, 0]"] ;
75 -> 97 ;
98 [label="PaperlessBilling <= 1.0\ngini = 0.386\nsamples = 69\nvalue = [18, 51]"] ;
14 -> 98 ;
99 [label="Partner <= 0.5\ngini = 0.44\nsamples = 55\nvalue = [18, 37]"] ;
98 -> 99 ;
100 [label="MonthlyCharges <= 50.425\ngini = 0.482\nsamples = 42\nvalue = [17, 25]"] ;
99 -> 100 ;
101 [label="MonthlyCharges <= 24.85\ngini = 0.494\nsamples = 38\nvalue = [17, 21]"] ;
100 -> 101 ;
102 [label="SeniorCitizen <= 0.5\ngini = 0.397\nsamples = 11\nvalue = [3, 8]"] ;
101 -> 102 ;
103 [label="MonthlyCharges <= 24.725\ngini = 0.49\nsamples = 7\nvalue = [3, 4]"] ;
102 -> 103 ;
104 [label="TotalCharges <= 24.65\ngini = 0.375\nsamples = 4\nvalue = [3, 1]"] ;
103 -> 104 ;
105 [label="gini = 0.0\nsamples = 1\nvalue = [0, 1]"] ;
104 -> 105 ;
106 [label="gini = 0.0\nsamples = 3\nvalue = [3, 0]"] ;
104 -> 106 ;
107 [label="gini = 0.0\nsamples = 3\nvalue = [0, 3]"] ;
103 -> 107 ;
108 [label="gini = 0.0\nsamples = 4\nvalue = [0, 4]"] ;
102 -> 108 ;
109 [label="StreamingTV <= 1.0\ngini = 0.499\nsamples = 27\nvalue = [14, 13]"] ;
101 -> 109 ;
110 [label="PhoneService <= 0.5\ngini = 0.493\nsamples = 25\nvalue = [14, 11]"] ;
109 -> 110 ;
111 [label="TotalCharges <= 100.175\ngini = 0.499\nsamples = 23\nvalue = [12, 11]"] ;
110 -> 111 ;
112 [label="TotalCharges <= 68.575\ngini = 0.484\nsamples = 17\nvalue = [10, 7]"] ;
111 -> 112 ;
113 [label="TotalCharges <= 53.225\ngini = 0.5\nsamples = 14\nvalue = [7, 7]"] ;
112 -> 113 ;
114 [label="Contract <= 1.0\ngini = 0.486\nsamples = 12\nvalue = [7, 5]"] ;
113 -> 114 ;
115 [label="TotalCharges <= 25.225\ngini = 0.463\nsamples = 11\nvalue = [7, 4]"] ;
114 -> 115 ;
116 [label="MonthlyCharges <= 25.0\ngini = 0.48\nsamples = 5\nvalue = [2, 3]"] ;
115 -> 116 ;
117 [label="gini = 0.0\nsamples = 1\nvalue = [1, 0]"] ;
116 -> 117 ;
118 [label="gender <= 0.5\ngini = 0.375\nsamples = 4\nvalue = [1, 3]"] ;
116 -> 118 ;
119 [label="TotalCharges <= 25.125\ngini = 0.444\nsamples = 3\nvalue = [1, 2]"] ;
118 -> 119 ;
120 [label="gini = 0.0\nsamples = 1\nvalue = [0, 1]"] ;
119 -> 120 ;
121 [label="SeniorCitizen <= 0.5\ngini = 0.5\nsamples = 2\nvalue = [1, 1]"] ;
119 -> 121 ;
122 [label="gini = 0.0\nsamples = 1\nvalue = [0, 1]"] ;
121 -> 122 ;
123 [label="gini = 0.0\nsamples = 1\nvalue = [1, 0]"] ;
121 -> 123 ;
124 [label="gini = 0.0\nsamples = 1\nvalue = [0, 1]"] ;
118 -> 124 ;
125 [label="TotalCharges <= 49.875\ngini = 0.278\nsamples = 6\nvalue = [5, 1]"] ;
115 -> 125 ;
126 [label="gini = 0.0\nsamples = 4\nvalue = [4, 0]"] ;
125 -> 126 ;
127 [label="MonthlyCharges <= 50.025\ngini = 0.5\nsamples = 2\nvalue = [1, 1]"] ;
125 -> 127 ;
128 [label="gini = 0.0\nsamples = 1\nvalue = [0, 1]"] ;
127 -> 128 ;
129 [label="gini = 0.0\nsamples = 1\nvalue = [1, 0]"] ;
127 -> 129 ;
130 [label="gini = 0.0\nsamples = 1\nvalue = [0, 1]"] ;
114 -> 130 ;
131 [label="gini = 0.0\nsamples = 2\nvalue = [0, 2]"] ;
113 -> 131 ;
132 [label="gini = 0.0\nsamples = 3\nvalue = [3, 0]"] ;
112 -> 132 ;
133 [label="tenure <= 1.5\ngini = 0.444\nsamples = 6\nvalue = [2, 4]"] ;
111 -> 133 ;
134 [label="TotalCharges <= 111.45\ngini = 0.444\nsamples = 3\nvalue = [2, 1]"] ;
133 -> 134 ;
135 [label="gini = 0.0\nsamples = 1\nvalue = [0, 1]"] ;
134 -> 135 ;
136 [label="gini = 0.0\nsamples = 2\nvalue = [2, 0]"] ;
134 -> 136 ;
137 [label="gini = 0.0\nsamples = 3\nvalue = [0, 3]"] ;
133 -> 137 ;
138 [label="gini = 0.0\nsamples = 2\nvalue = [2, 0]"] ;
110 -> 138 ;
139 [label="gini = 0.0\nsamples = 2\nvalue = [0, 2]"] ;
109 -> 139 ;
140 [label="gini = 0.0\nsamples = 4\nvalue = [0, 4]"] ;
100 -> 140 ;
141 [label="TotalCharges <= 110.375\ngini = 0.142\nsamples = 13\nvalue = [1, 12]"] ;
99 -> 141 ;
142 [label="gini = 0.0\nsamples = 12\nvalue = [0, 12]"] ;
141 -> 142 ;
143 [label="gini = 0.0\nsamples = 1\nvalue = [1, 0]"] ;
141 -> 143 ;
144 [label="gini = 0.0\nsamples = 14\nvalue = [0, 14]"] ;
98 -> 144 ;
145 [label="TotalCharges <= 114.425\ngini = 0.5\nsamples = 33\nvalue = [17, 16]"] ;
13 -> 145 ;
146 [label="TotalCharges <= 52.55\ngini = 0.469\nsamples = 24\nvalue = [15, 9]"] ;
145 -> 146 ;
147 [label="MonthlyCharges <= 50.35\ngini = 0.486\nsamples = 12\nvalue = [5, 7]"] ;
146 -> 147 ;
148 [label="InternetService <= 0.5\ngini = 0.469\nsamples = 8\nvalue = [5, 3]"] ;
147 -> 148 ;
149 [label="TotalCharges <= 29.9\ngini = 0.375\nsamples = 4\nvalue = [1, 3]"] ;
148 -> 149 ;
150 [label="gini = 0.0\nsamples = 1\nvalue = [1, 0]"] ;
149 -> 150 ;
151 [label="gini = 0.0\nsamples = 3\nvalue = [0, 3]"] ;
149 -> 151 ;
152 [label="gini = 0.0\nsamples = 4\nvalue = [4, 0]"] ;
148 -> 152 ;
153 [label="gini = 0.0\nsamples = 4\nvalue = [0, 4]"] ;
147 -> 153 ;
154 [label="MonthlyCharges <= 29.7\ngini = 0.278\nsamples = 12\nvalue = [10, 2]"] ;
146 -> 154 ;
155 [label="gini = 0.0\nsamples = 1\nvalue = [0, 1]"] ;
154 -> 155 ;
156 [label="TotalCharges <= 108.9\ngini = 0.165\nsamples = 11\nvalue = [10, 1]"] ;
154 -> 156 ;
157 [label="gini = 0.0\nsamples = 9\nvalue = [9, 0]"] ;
156 -> 157 ;
158 [label="gender <= 0.5\ngini = 0.5\nsamples = 2\nvalue = [1, 1]"] ;
156 -> 158 ;
159 [label="gini = 0.0\nsamples = 1\nvalue = [1, 0]"] ;
158 -> 159 ;
160 [label="gini = 0.0\nsamples = 1\nvalue = [0, 1]"] ;
158 -> 160 ;
161 [label="MonthlyCharges <= 56.35\ngini = 0.346\nsamples = 9\nvalue = [2, 7]"] ;
145 -> 161 ;
162 [label="SeniorCitizen <= 0.5\ngini = 0.219\nsamples = 8\nvalue = [1, 7]"] ;
161 -> 162 ;
163 [label="Partner <= 0.5\ngini = 0.5\nsamples = 2\nvalue = [1, 1]"] ;
162 -> 163 ;
164 [label="gini = 0.0\nsamples = 1\nvalue = [1, 0]"] ;
163 -> 164 ;
165 [label="gini = 0.0\nsamples = 1\nvalue = [0, 1]"] ;
163 -> 165 ;
166 [label="gini = 0.0\nsamples = 6\nvalue = [0, 6]"] ;
162 -> 166 ;
167 [label="gini = 0.0\nsamples = 1\nvalue = [1, 0]"] ;
161 -> 167 ;
168 [label="TotalCharges <= 38.0\ngini = 0.486\nsamples = 36\nvalue = [21, 15]"] ;
6 -> 168 ;
169 [label="gini = 0.0\nsamples = 3\nvalue = [3, 0]"] ;
168 -> 169 ;
170 [label="TotalCharges <= 108.975\ngini = 0.496\nsamples = 33\nvalue = [18, 15]"] ;
168 -> 170 ;
171 [label="StreamingTV <= 1.0\ngini = 0.488\nsamples = 19\nvalue = [8, 11]"] ;
170 -> 171 ;
172 [label="TechSupport <= 1.0\ngini = 0.457\nsamples = 17\nvalue = [6, 11]"] ;
171 -> 172 ;
173 [label="gender <= 0.5\ngini = 0.49\nsamples = 14\nvalue = [6, 8]"] ;
172 -> 173 ;
174 [label="TotalCharges <= 50.35\ngini = 0.32\nsamples = 5\nvalue = [1, 4]"] ;
173 -> 174 ;
175 [label="Dependents <= 0.5\ngini = 0.5\nsamples = 2\nvalue = [1, 1]"] ;
174 -> 175 ;
176 [label="gini = 0.0\nsamples = 1\nvalue = [1, 0]"] ;
175 -> 176 ;
177 [label="gini = 0.0\nsamples = 1\nvalue = [0, 1]"] ;
175 -> 177 ;
178 [label="gini = 0.0\nsamples = 3\nvalue = [0, 3]"] ;
174 -> 178 ;
179 [label="MonthlyCharges <= 49.15\ngini = 0.494\nsamples = 9\nvalue = [5, 4]"] ;
173 -> 179 ;
180 [label="tenure <= 0.5\ngini = 0.32\nsamples = 5\nvalue = [4, 1]"] ;
179 -> 180 ;
181 [label="gini = 0.0\nsamples = 1\nvalue = [0, 1]"] ;
180 -> 181 ;
182 [label="gini = 0.0\nsamples = 4\nvalue = [4, 0]"] ;
180 -> 182 ;
183 [label="PaperlessBilling <= 1.0\ngini = 0.375\nsamples = 4\nvalue = [1, 3]"] ;
179 -> 183 ;
184 [label="gini = 0.0\nsamples = 3\nvalue = [0, 3]"] ;
183 -> 184 ;
185 [label="gini = 0.0\nsamples = 1\nvalue = [1, 0]"] ;
183 -> 185 ;
186 [label="gini = 0.0\nsamples = 3\nvalue = [0, 3]"] ;
172 -> 186 ;
187 [label="gini = 0.0\nsamples = 2\nvalue = [2, 0]"] ;
171 -> 187 ;
188 [label="MonthlyCharges <= 67.3\ngini = 0.408\nsamples = 14\nvalue = [10, 4]"] ;
170 -> 188 ;
189 [label="TotalCharges <= 153.975\ngini = 0.278\nsamples = 12\nvalue = [10, 2]"] ;
188 -> 189 ;
190 [label="gini = 0.0\nsamples = 5\nvalue = [5, 0]"] ;
189 -> 190 ;
191 [label="TotalCharges <= 159.05\ngini = 0.408\nsamples = 7\nvalue = [5, 2]"] ;
189 -> 191 ;
192 [label="gini = 0.0\nsamples = 1\nvalue = [0, 1]"] ;
191 -> 192 ;
193 [label="OnlineSecurity <= 0.5\ngini = 0.278\nsamples = 6\nvalue = [5, 1]"] ;
191 -> 193 ;
194 [label="Dependents <= 0.5\ngini = 0.5\nsamples = 2\nvalue = [1, 1]"] ;
193 -> 194 ;
195 [label="gini = 0.0\nsamples = 1\nvalue = [1, 0]"] ;
194 -> 195 ;
196 [label="gini = 0.0\nsamples = 1\nvalue = [0, 1]"] ;
194 -> 196 ;
197 [label="gini = 0.0\nsamples = 4\nvalue = [4, 0]"] ;
193 -> 197 ;
198 [label="gini = 0.0\nsamples = 2\nvalue = [0, 2]"] ;
188 -> 198 ;
199 [label="gini = 0.0\nsamples = 5\nvalue = [5, 0]"] ;
5 -> 199 ;
200 [label="MonthlyCharges <= 34.225\ngini = 0.438\nsamples = 105\nvalue = [71, 34]"] ;
4 -> 200 ;
201 [label="gini = 0.0\nsamples = 4\nvalue = [0, 4]"] ;
200 -> 201 ;
202 [label="MonthlyCharges <= 51.125\ngini = 0.418\nsamples = 101\nvalue = [71, 30]"] ;
200 -> 202 ;
203 [label="MonthlyCharges <= 44.725\ngini = 0.485\nsamples = 46\nvalue = [27, 19]"] ;
202 -> 203 ;
204 [label="tenure <= 0.5\ngini = 0.337\nsamples = 14\nvalue = [11, 3]"] ;
203 -> 204 ;
205 [label="TotalCharges <= 311.7\ngini = 0.5\nsamples = 4\nvalue = [2, 2]"] ;
204 -> 205 ;
206 [label="gini = 0.0\nsamples = 1\nvalue = [0, 1]"] ;
205 -> 206 ;
207 [label="TotalCharges <= 386.25\ngini = 0.444\nsamples = 3\nvalue = [2, 1]"] ;
205 -> 207 ;
208 [label="gini = 0.0\nsamples = 2\nvalue = [2, 0]"] ;
207 -> 208 ;
209 [label="gini = 0.0\nsamples = 1\nvalue = [0, 1]"] ;
207 -> 209 ;
210 [label="MonthlyCharges <= 37.725\ngini = 0.18\nsamples = 10\nvalue = [9, 1]"] ;
204 -> 210 ;
211 [label="gini = 0.0\nsamples = 1\nvalue = [0, 1]"] ;
210 -> 211 ;
212 [label="gini = 0.0\nsamples = 9\nvalue = [9, 0]"] ;
210 -> 212 ;
213 [label="PhoneService <= 0.5\ngini = 0.5\nsamples = 32\nvalue = [16, 16]"] ;
203 -> 213 ;
214 [label="SeniorCitizen <= 0.5\ngini = 0.476\nsamples = 23\nvalue = [9, 14]"] ;
213 -> 214 ;
215 [label="MonthlyCharges <= 45.1\ngini = 0.463\nsamples = 11\nvalue = [7, 4]"] ;
214 -> 215 ;
216 [label="gini = 0.0\nsamples = 2\nvalue = [0, 2]"] ;
215 -> 216 ;
217 [label="TotalCharges <= 241.0\ngini = 0.346\nsamples = 9\nvalue = [7, 2]"] ;
215 -> 217 ;
218 [label="TotalCharges <= 218.95\ngini = 0.5\nsamples = 4\nvalue = [2, 2]"] ;
217 -> 218 ;
219 [label="gini = 0.0\nsamples = 2\nvalue = [2, 0]"] ;
218 -> 219 ;
220 [label="gini = 0.0\nsamples = 2\nvalue = [0, 2]"] ;
218 -> 220 ;
221 [label="gini = 0.0\nsamples = 5\nvalue = [5, 0]"] ;
217 -> 221 ;
222 [label="TechSupport <= 1.0\ngini = 0.278\nsamples = 12\nvalue = [2, 10]"] ;
214 -> 222 ;
223 [label="gini = 0.0\nsamples = 9\nvalue = [0, 9]"] ;
222 -> 223 ;
224 [label="tenure <= 2.0\ngini = 0.444\nsamples = 3\nvalue = [2, 1]"] ;
222 -> 224 ;
225 [label="gini = 0.0\nsamples = 2\nvalue = [2, 0]"] ;
224 -> 225 ;
226 [label="gini = 0.0\nsamples = 1\nvalue = [0, 1]"] ;
224 -> 226 ;
227 [label="StreamingTV <= 1.0\ngini = 0.346\nsamples = 9\nvalue = [7, 2]"] ;
213 -> 227 ;
228 [label="gini = 0.0\nsamples = 7\nvalue = [7, 0]"] ;
227 -> 228 ;
229 [label="gini = 0.0\nsamples = 2\nvalue = [0, 2]"] ;
227 -> 229 ;
230 [label="MonthlyCharges <= 68.225\ngini = 0.32\nsamples = 55\nvalue = [44, 11]"] ;
202 -> 230 ;
231 [label="PhoneService <= 0.5\ngini = 0.236\nsamples = 44\nvalue = [38, 6]"] ;
230 -> 231 ;
232 [label="tenure <= 2.5\ngini = 0.062\nsamples = 31\nvalue = [30, 1]"] ;
231 -> 232 ;
233 [label="gini = 0.0\nsamples = 20\nvalue = [20, 0]"] ;
232 -> 233 ;
234 [label="StreamingMovies <= 1.0\ngini = 0.165\nsamples = 11\nvalue = [10, 1]"] ;
232 -> 234 ;
235 [label="gini = 0.0\nsamples = 7\nvalue = [7, 0]"] ;
234 -> 235 ;
236 [label="MonthlyCharges <= 60.225\ngini = 0.375\nsamples = 4\nvalue = [3, 1]"] ;
234 -> 236 ;
237 [label="gini = 0.0\nsamples = 1\nvalue = [0, 1]"] ;
236 -> 237 ;
238 [label="gini = 0.0\nsamples = 3\nvalue = [3, 0]"] ;
236 -> 238 ;
239 [label="tenure <= 1.5\ngini = 0.473\nsamples = 13\nvalue = [8, 5]"] ;
231 -> 239 ;
240 [label="gini = 0.0\nsamples = 2\nvalue = [0, 2]"] ;
239 -> 240 ;
241 [label="TotalCharges <= 462.425\ngini = 0.397\nsamples = 11\nvalue = [8, 3]"] ;
239 -> 241 ;
242 [label="OnlineSecurity <= 1.0\ngini = 0.5\nsamples = 6\nvalue = [3, 3]"] ;
241 -> 242 ;
243 [label="gini = 0.0\nsamples = 3\nvalue = [0, 3]"] ;
242 -> 243 ;
244 [label="gini = 0.0\nsamples = 3\nvalue = [3, 0]"] ;
242 -> 244 ;
245 [label="gini = 0.0\nsamples = 5\nvalue = [5, 0]"] ;
241 -> 245 ;
246 [label="TotalCharges <= 252.675\ngini = 0.496\nsamples = 11\nvalue = [6, 5]"] ;
230 -> 246 ;
247 [label="gini = 0.0\nsamples = 3\nvalue = [3, 0]"] ;
246 -> 247 ;
248 [label="MonthlyCharges <= 74.9\ngini = 0.469\nsamples = 8\nvalue = [3, 5]"] ;
246 -> 248 ;
249 [label="Dependents <= 0.5\ngini = 0.408\nsamples = 7\nvalue = [2, 5]"] ;
248 -> 249 ;
250 [label="MonthlyCharges <= 69.725\ngini = 0.278\nsamples = 6\nvalue = [1, 5]"] ;
249 -> 250 ;
251 [label="StreamingMovies <= 1.0\ngini = 0.5\nsamples = 2\nvalue = [1, 1]"] ;
250 -> 251 ;
252 [label="gini = 0.0\nsamples = 1\nvalue = [0, 1]"] ;
251 -> 252 ;
253 [label="gini = 0.0\nsamples = 1\nvalue = [1, 0]"] ;
251 -> 253 ;
254 [label="gini = 0.0\nsamples = 4\nvalue = [0, 4]"] ;
250 -> 254 ;
255 [label="gini = 0.0\nsamples = 1\nvalue = [1, 0]"] ;
249 -> 255 ;
256 [label="gini = 0.0\nsamples = 1\nvalue = [1, 0]"] ;
248 -> 256 ;
257 [label="TotalCharges <= 95.75\ngini = 0.402\nsamples = 571\nvalue = [159, 412]"] ;
3 -> 257 ;
258 [label="StreamingMovies <= 1.0\ngini = 0.245\nsamples = 161\nvalue = [23, 138]"] ;
257 -> 258 ;
259 [label="MonthlyCharges <= 69.875\ngini = 0.23\nsamples = 158\nvalue = [21, 137]"] ;
258 -> 259 ;
260 [label="gini = 0.0\nsamples = 31\nvalue = [0, 31]"] ;
259 -> 260 ;
261 [label="TotalCharges <= 72.8\ngini = 0.276\nsamples = 127\nvalue = [21, 106]"] ;
259 -> 261 ;
262 [label="MonthlyCharges <= 71.05\ngini = 0.418\nsamples = 37\nvalue = [11, 26]"] ;
261 -> 262 ;
263 [label="tenure <= 1.5\ngini = 0.367\nsamples = 33\nvalue = [8, 25]"] ;
262 -> 263 ;
264 [label="gini = 0.0\nsamples = 1\nvalue = [1, 0]"] ;
263 -> 264 ;
265 [label="SeniorCitizen <= 0.5\ngini = 0.342\nsamples = 32\nvalue = [7, 25]"] ;
263 -> 265 ;
266 [label="gini = 0.0\nsamples = 6\nvalue = [0, 6]"] ;
265 -> 266 ;
267 [label="PhoneService <= 0.5\ngini = 0.393\nsamples = 26\nvalue = [7, 19]"] ;
265 -> 267 ;
268 [label="TotalCharges <= 70.2\ngini = 0.444\nsamples = 21\nvalue = [7, 14]"] ;
267 -> 268 ;
269 [label="gender <= 0.5\ngini = 0.298\nsamples = 11\nvalue = [2, 9]"] ;
268 -> 269 ;
270 [label="gini = 0.0\nsamples = 6\nvalue = [0, 6]"] ;
269 -> 270 ;
271 [label="Partner <= 0.5\ngini = 0.48\nsamples = 5\nvalue = [2, 3]"] ;
269 -> 271 ;
272 [label="MonthlyCharges <= 69.975\ngini = 0.375\nsamples = 4\nvalue = [1, 3]"] ;
271 -> 272 ;
273 [label="gini = 0.444\nsamples = 3\nvalue = [1, 2]"] ;
272 -> 273 ;
274 [label="gini = 0.0\nsamples = 1\nvalue = [0, 1]"] ;
272 -> 274 ;
275 [label="gini = 0.0\nsamples = 1\nvalue = [1, 0]"] ;
271 -> 275 ;
276 [label="Dependents <= 0.5\ngini = 0.5\nsamples = 10\nvalue = [5, 5]"] ;
268 -> 276 ;
277 [label="MonthlyCharges <= 70.75\ngini = 0.469\nsamples = 8\nvalue = [5, 3]"] ;
276 -> 277 ;
278 [label="tenure <= 2.5\ngini = 0.278\nsamples = 6\nvalue = [5, 1]"] ;
277 -> 278 ;
279 [label="MonthlyCharges <= 70.475\ngini = 0.444\nsamples = 3\nvalue = [2, 1]"] ;
278 -> 279 ;
280 [label="gini = 0.0\nsamples = 2\nvalue = [2, 0]"] ;
279 -> 280 ;
281 [label="gini = 0.0\nsamples = 1\nvalue = [0, 1]"] ;
279 -> 281 ;
282 [label="gini = 0.0\nsamples = 3\nvalue = [3, 0]"] ;
278 -> 282 ;
283 [label="gini = 0.0\nsamples = 2\nvalue = [0, 2]"] ;
277 -> 283 ;
284 [label="gini = 0.0\nsamples = 2\nvalue = [0, 2]"] ;
276 -> 284 ;
285 [label="gini = 0.0\nsamples = 5\nvalue = [0, 5]"] ;
267 -> 285 ;
286 [label="TotalCharges <= 71.3\ngini = 0.375\nsamples = 4\nvalue = [3, 1]"] ;
262 -> 286 ;
287 [label="gini = 0.0\nsamples = 2\nvalue = [2, 0]"] ;
286 -> 287 ;
288 [label="MonthlyCharges <= 71.725\ngini = 0.5\nsamples = 2\nvalue = [1, 1]"] ;
286 -> 288 ;
289 [label="gini = 0.0\nsamples = 1\nvalue = [0, 1]"] ;
288 -> 289 ;
290 [label="gini = 0.0\nsamples = 1\nvalue = [1, 0]"] ;
288 -> 290 ;
291 [label="PhoneService <= 0.5\ngini = 0.198\nsamples = 90\nvalue = [10, 80]"] ;
261 -> 291 ;
292 [label="MonthlyCharges <= 75.675\ngini = 0.145\nsamples = 76\nvalue = [6, 70]"] ;
291 -> 292 ;
293 [label="SeniorCitizen <= 0.5\ngini = 0.278\nsamples = 24\nvalue = [4, 20]"] ;
292 -> 293 ;
294 [label="tenure <= 0.5\ngini = 0.375\nsamples = 4\nvalue = [3, 1]"] ;
293 -> 294 ;
295 [label="gini = 0.0\nsamples = 1\nvalue = [0, 1]"] ;
294 -> 295 ;
296 [label="gini = 0.0\nsamples = 3\nvalue = [3, 0]"] ;
294 -> 296 ;
297 [label="TotalCharges <= 75.075\ngini = 0.095\nsamples = 20\nvalue = [1, 19]"] ;
293 -> 297 ;
298 [label="gini = 0.0\nsamples = 14\nvalue = [0, 14]"] ;
297 -> 298 ;
299 [label="MonthlyCharges <= 75.2\ngini = 0.278\nsamples = 6\nvalue = [1, 5]"] ;
297 -> 299 ;
300 [label="gender <= 0.5\ngini = 0.5\nsamples = 2\nvalue = [1, 1]"] ;
299 -> 300 ;
301 [label="gini = 0.0\nsamples = 1\nvalue = [0, 1]"] ;
300 -> 301 ;
302 [label="gini = 0.0\nsamples = 1\nvalue = [1, 0]"] ;
300 -> 302 ;
303 [label="gini = 0.0\nsamples = 4\nvalue = [0, 4]"] ;
299 -> 303 ;
304 [label="TotalCharges <= 84.45\ngini = 0.074\nsamples = 52\nvalue = [2, 50]"] ;
292 -> 304 ;
305 [label="gini = 0.0\nsamples = 28\nvalue = [0, 28]"] ;
304 -> 305 ;
306 [label="MonthlyCharges <= 84.725\ngini = 0.153\nsamples = 24\nvalue = [2, 22]"] ;
304 -> 306 ;
307 [label="gini = 0.0\nsamples = 1\nvalue = [1, 0]"] ;
306 -> 307 ;
308 [label="TotalCharges <= 89.175\ngini = 0.083\nsamples = 23\nvalue = [1, 22]"] ;
306 -> 308 ;
309 [label="gini = 0.0\nsamples = 12\nvalue = [0, 12]"] ;
308 -> 309 ;
310 [label="MonthlyCharges <= 89.4\ngini = 0.165\nsamples = 11\nvalue = [1, 10]"] ;
308 -> 310 ;
311 [label="gini = 0.0\nsamples = 1\nvalue = [1, 0]"] ;
310 -> 311 ;
312 [label="gini = 0.0\nsamples = 10\nvalue = [0, 10]"] ;
310 -> 312 ;
313 [label="TotalCharges <= 80.55\ngini = 0.408\nsamples = 14\nvalue = [4, 10]"] ;
291 -> 313 ;
314 [label="tenure <= 1.5\ngini = 0.198\nsamples = 9\nvalue = [1, 8]"] ;
313 -> 314 ;
315 [label="gini = 0.0\nsamples = 1\nvalue = [1, 0]"] ;
314 -> 315 ;
316 [label="gini = 0.0\nsamples = 8\nvalue = [0, 8]"] ;
314 -> 316 ;
317 [label="SeniorCitizen <= 0.5\ngini = 0.48\nsamples = 5\nvalue = [3, 2]"] ;
313 -> 317 ;
318 [label="gini = 0.0\nsamples = 1\nvalue = [0, 1]"] ;
317 -> 318 ;
319 [label="OnlineSecurity <= 1.0\ngini = 0.375\nsamples = 4\nvalue = [3, 1]"] ;
317 -> 319 ;
320 [label="gini = 0.0\nsamples = 3\nvalue = [3, 0]"] ;
319 -> 320 ;
321 [label="gini = 0.0\nsamples = 1\nvalue = [0, 1]"] ;
319 -> 321 ;
322 [label="Contract <= 1.0\ngini = 0.444\nsamples = 3\nvalue = [2, 1]"] ;
258 -> 322 ;
323 [label="gini = 0.0\nsamples = 2\nvalue = [2, 0]"] ;
322 -> 323 ;
324 [label="gini = 0.0\nsamples = 1\nvalue = [0, 1]"] ;
322 -> 324 ;
325 [label="MonthlyCharges <= 73.875\ngini = 0.443\nsamples = 410\nvalue = [136, 274]"] ;
257 -> 325 ;
326 [label="TotalCharges <= 120.0\ngini = 0.498\nsamples = 83\nvalue = [44, 39]"] ;
325 -> 326 ;
327 [label="gini = 0.0\nsamples = 3\nvalue = [0, 3]"] ;
326 -> 327 ;
328 [label="MultipleLines <= 9.5\ngini = 0.495\nsamples = 80\nvalue = [44, 36]"] ;
326 -> 328 ;
329 [label="TotalCharges <= 561.775\ngini = 0.489\nsamples = 75\nvalue = [43, 32]"] ;
328 -> 329 ;
330 [label="TotalCharges <= 502.1\ngini = 0.496\nsamples = 68\nvalue = [37, 31]"] ;
329 -> 330 ;
331 [label="TotalCharges <= 470.1\ngini = 0.488\nsamples = 64\nvalue = [37, 27]"] ;
330 -> 331 ;
332 [label="tenure <= 0.5\ngini = 0.495\nsamples = 60\nvalue = [33, 27]"] ;
331 -> 332 ;
333 [label="gini = 0.0\nsamples = 4\nvalue = [0, 4]"] ;
332 -> 333 ;
334 [label="MultipleLines <= 6.5\ngini = 0.484\nsamples = 56\nvalue = [33, 23]"] ;
332 -> 334 ;
335 [label="TotalCharges <= 341.7\ngini = 0.475\nsamples = 54\nvalue = [33, 21]"] ;
334 -> 335 ;
336 [label="TotalCharges <= 322.925\ngini = 0.489\nsamples = 47\nvalue = [27, 20]"] ;
335 -> 336 ;
337 [label="tenure <= 2.5\ngini = 0.474\nsamples = 44\nvalue = [27, 17]"] ;
336 -> 337 ;
338 [label="MonthlyCharges <= 70.375\ngini = 0.491\nsamples = 37\nvalue = [21, 16]"] ;
337 -> 338 ;
339 [label="TotalCharges <= 204.525\ngini = 0.454\nsamples = 23\nvalue = [15, 8]"] ;
338 -> 339 ;
340 [label="tenure <= 1.5\ngini = 0.278\nsamples = 12\nvalue = [10, 2]"] ;
339 -> 340 ;
341 [label="gini = 0.0\nsamples = 1\nvalue = [0, 1]"] ;
340 -> 341 ;
342 [label="Partner <= 0.5\ngini = 0.165\nsamples = 11\nvalue = [10, 1]"] ;
340 -> 342 ;
343 [label="gini = 0.0\nsamples = 9\nvalue = [9, 0]"] ;
342 -> 343 ;
344 [label="gender <= 0.5\ngini = 0.5\nsamples = 2\nvalue = [1, 1]"] ;
342 -> 344 ;
345 [label="gini = 0.0\nsamples = 1\nvalue = [0, 1]"] ;
344 -> 345 ;
346 [label="gini = 0.0\nsamples = 1\nvalue = [1, 0]"] ;
344 -> 346 ;
347 [label="TotalCharges <= 249.8\ngini = 0.496\nsamples = 11\nvalue = [5, 6]"] ;
339 -> 347 ;
348 [label="gender <= 0.5\ngini = 0.32\nsamples = 5\nvalue = [1, 4]"] ;
347 -> 348 ;
349 [label="Partner <= 0.5\ngini = 0.5\nsamples = 2\nvalue = [1, 1]"] ;
348 -> 349 ;
350 [label="gini = 0.0\nsamples = 1\nvalue = [1, 0]"] ;
349 -> 350 ;
351 [label="gini = 0.0\nsamples = 1\nvalue = [0, 1]"] ;
349 -> 351 ;
352 [label="gini = 0.0\nsamples = 3\nvalue = [0, 3]"] ;
348 -> 352 ;
353 [label="Partner <= 0.5\ngini = 0.444\nsamples = 6\nvalue = [4, 2]"] ;
347 -> 353 ;
354 [label="TotalCharges <= 318.65\ngini = 0.444\nsamples = 3\nvalue = [1, 2]"] ;
353 -> 354 ;
355 [label="gini = 0.0\nsamples = 2\nvalue = [0, 2]"] ;
354 -> 355 ;
356 [label="gini = 0.0\nsamples = 1\nvalue = [1, 0]"] ;
354 -> 356 ;
357 [label="gini = 0.0\nsamples = 3\nvalue = [3, 0]"] ;
353 -> 357 ;
358 [label="TotalCharges <= 150.975\ngini = 0.49\nsamples = 14\nvalue = [6, 8]"] ;
338 -> 358 ;
359 [label="gini = 0.0\nsamples = 5\nvalue = [0, 5]"] ;
358 -> 359 ;
360 [label="MonthlyCharges <= 71.025\ngini = 0.444\nsamples = 9\nvalue = [6, 3]"] ;
358 -> 360 ;
361 [label="Dependents <= 0.5\ngini = 0.48\nsamples = 5\nvalue = [2, 3]"] ;
360 -> 361 ;
362 [label="gini = 0.0\nsamples = 3\nvalue = [0, 3]"] ;
361 -> 362 ;
363 [label="gini = 0.0\nsamples = 2\nvalue = [2, 0]"] ;
361 -> 363 ;
364 [label="gini = 0.0\nsamples = 4\nvalue = [4, 0]"] ;
360 -> 364 ;
365 [label="gender <= 0.5\ngini = 0.245\nsamples = 7\nvalue = [6, 1]"] ;
337 -> 365 ;
366 [label="gini = 0.0\nsamples = 1\nvalue = [0, 1]"] ;
365 -> 366 ;
367 [label="gini = 0.0\nsamples = 6\nvalue = [6, 0]"] ;
365 -> 367 ;
368 [label="gini = 0.0\nsamples = 3\nvalue = [0, 3]"] ;
336 -> 368 ;
369 [label="MonthlyCharges <= 69.525\ngini = 0.245\nsamples = 7\nvalue = [6, 1]"] ;
335 -> 369 ;
370 [label="tenure <= 2.5\ngini = 0.444\nsamples = 3\nvalue = [2, 1]"] ;
369 -> 370 ;
371 [label="gini = 0.0\nsamples = 2\nvalue = [2, 0]"] ;
370 -> 371 ;
372 [label="gini = 0.0\nsamples = 1\nvalue = [0, 1]"] ;
370 -> 372 ;
373 [label="gini = 0.0\nsamples = 4\nvalue = [4, 0]"] ;
369 -> 373 ;
374 [label="gini = 0.0\nsamples = 2\nvalue = [0, 2]"] ;
334 -> 374 ;
375 [label="gini = 0.0\nsamples = 4\nvalue = [4, 0]"] ;
331 -> 375 ;
376 [label="gini = 0.0\nsamples = 4\nvalue = [0, 4]"] ;
330 -> 376 ;
377 [label="TotalCharges <= 665.025\ngini = 0.245\nsamples = 7\nvalue = [6, 1]"] ;
329 -> 377 ;
378 [label="gini = 0.0\nsamples = 5\nvalue = [5, 0]"] ;
377 -> 378 ;
379 [label="gender <= 0.5\ngini = 0.5\nsamples = 2\nvalue = [1, 1]"] ;
377 -> 379 ;
380 [label="gini = 0.0\nsamples = 1\nvalue = [0, 1]"] ;
379 -> 380 ;
381 [label="gini = 0.0\nsamples = 1\nvalue = [1, 0]"] ;
379 -> 381 ;
382 [label="SeniorCitizen <= 0.5\ngini = 0.32\nsamples = 5\nvalue = [1, 4]"] ;
328 -> 382 ;
383 [label="gini = 0.0\nsamples = 1\nvalue = [1, 0]"] ;
382 -> 383 ;
384 [label="gini = 0.0\nsamples = 4\nvalue = [0, 4]"] ;
382 -> 384 ;
385 [label="TotalCharges <= 141.725\ngini = 0.404\nsamples = 327\nvalue = [92, 235]"] ;
325 -> 385 ;
386 [label="gini = 0.0\nsamples = 4\nvalue = [4, 0]"] ;
385 -> 386 ;
387 [label="OnlineSecurity <= 1.0\ngini = 0.396\nsamples = 323\nvalue = [88, 235]"] ;
385 -> 387 ;
388 [label="MonthlyCharges <= 101.325\ngini = 0.453\nsamples = 147\nvalue = [51, 96]"] ;
387 -> 388 ;
389 [label="MonthlyCharges <= 96.0\ngini = 0.444\nsamples = 144\nvalue = [48, 96]"] ;
388 -> 389 ;
390 [label="MultipleLines <= 8.5\ngini = 0.457\nsamples = 136\nvalue = [48, 88]"] ;
389 -> 390 ;
391 [label="TotalCharges <= 430.225\ngini = 0.436\nsamples = 115\nvalue = [37, 78]"] ;
390 -> 391 ;
392 [label="TechSupport <= 1.0\ngini = 0.474\nsamples = 75\nvalue = [29, 46]"] ;
391 -> 392 ;
393 [label="tenure <= 2.5\ngini = 0.419\nsamples = 57\nvalue = [17, 40]"] ;
392 -> 393 ;
394 [label="MonthlyCharges <= 79.85\ngini = 0.346\nsamples = 45\nvalue = [10, 35]"] ;
393 -> 394 ;
395 [label="gini = 0.0\nsamples = 12\nvalue = [0, 12]"] ;
394 -> 395 ;
396 [label="TotalCharges <= 231.75\ngini = 0.422\nsamples = 33\nvalue = [10, 23]"] ;
394 -> 396 ;
397 [label="MonthlyCharges <= 80.025\ngini = 0.208\nsamples = 17\nvalue = [2, 15]"] ;
396 -> 397 ;
398 [label="gini = 0.0\nsamples = 1\nvalue = [1, 0]"] ;
397 -> 398 ;
399 [label="MonthlyCharges <= 94.85\ngini = 0.117\nsamples = 16\nvalue = [1, 15]"] ;
397 -> 399 ;
400 [label="gini = 0.0\nsamples = 14\nvalue = [0, 14]"] ;
399 -> 400 ;
401 [label="MonthlyCharges <= 95.675\ngini = 0.5\nsamples = 2\nvalue = [1, 1]"] ;
399 -> 401 ;
402 [label="gini = 0.0\nsamples = 1\nvalue = [1, 0]"] ;
401 -> 402 ;
403 [label="gini = 0.0\nsamples = 1\nvalue = [0, 1]"] ;
401 -> 403 ;
404 [label="TotalCharges <= 386.925\ngini = 0.5\nsamples = 16\nvalue = [8, 8]"] ;
396 -> 404 ;
405 [label="StreamingTV <= 1.0\ngini = 0.444\nsamples = 12\nvalue = [8, 4]"] ;
404 -> 405 ;
406 [label="MonthlyCharges <= 83.325\ngini = 0.494\nsamples = 9\nvalue = [5, 4]"] ;
405 -> 406 ;
407 [label="gender <= 0.5\ngini = 0.32\nsamples = 5\nvalue = [4, 1]"] ;
406 -> 407 ;
408 [label="gini = 0.0\nsamples = 3\nvalue = [3, 0]"] ;
407 -> 408 ;
409 [label="Contract <= 1.0\ngini = 0.5\nsamples = 2\nvalue = [1, 1]"] ;
407 -> 409 ;
410 [label="gini = 0.0\nsamples = 1\nvalue = [1, 0]"] ;
409 -> 410 ;
411 [label="gini = 0.0\nsamples = 1\nvalue = [0, 1]"] ;
409 -> 411 ;
412 [label="MonthlyCharges <= 90.725\ngini = 0.375\nsamples = 4\nvalue = [1, 3]"] ;
406 -> 412 ;
413 [label="gini = 0.0\nsamples = 3\nvalue = [0, 3]"] ;
412 -> 413 ;
414 [label="gini = 0.0\nsamples = 1\nvalue = [1, 0]"] ;
412 -> 414 ;
415 [label="gini = 0.0\nsamples = 3\nvalue = [3, 0]"] ;
405 -> 415 ;
416 [label="gini = 0.0\nsamples = 4\nvalue = [0, 4]"] ;
404 -> 416 ;
417 [label="MonthlyCharges <= 82.7\ngini = 0.486\nsamples = 12\nvalue = [7, 5]"] ;
393 -> 417 ;
418 [label="TotalCharges <= 157.625\ngini = 0.245\nsamples = 7\nvalue = [6, 1]"] ;
417 -> 418 ;
419 [label="gini = 0.0\nsamples = 1\nvalue = [0, 1]"] ;
418 -> 419 ;
420 [label="gini = 0.0\nsamples = 6\nvalue = [6, 0]"] ;
418 -> 420 ;
421 [label="MonthlyCharges <= 89.1\ngini = 0.32\nsamples = 5\nvalue = [1, 4]"] ;
417 -> 421 ;
422 [label="gini = 0.0\nsamples = 4\nvalue = [0, 4]"] ;
421 -> 422 ;
423 [label="gini = 0.0\nsamples = 1\nvalue = [1, 0]"] ;
421 -> 423 ;
424 [label="MonthlyCharges <= 92.75\ngini = 0.444\nsamples = 18\nvalue = [12, 6]"] ;
392 -> 424 ;
425 [label="Dependents <= 0.5\ngini = 0.337\nsamples = 14\nvalue = [11, 3]"] ;
424 -> 425 ;
426 [label="MonthlyCharges <= 74.725\ngini = 0.165\nsamples = 11\nvalue = [10, 1]"] ;
425 -> 426 ;
427 [label="Partner <= 0.5\ngini = 0.444\nsamples = 3\nvalue = [2, 1]"] ;
426 -> 427 ;
428 [label="gini = 0.0\nsamples = 2\nvalue = [2, 0]"] ;
427 -> 428 ;
429 [label="gini = 0.0\nsamples = 1\nvalue = [0, 1]"] ;
427 -> 429 ;
430 [label="gini = 0.0\nsamples = 8\nvalue = [8, 0]"] ;
426 -> 430 ;
431 [label="Partner <= 0.5\ngini = 0.444\nsamples = 3\nvalue = [1, 2]"] ;
425 -> 431 ;
432 [label="gini = 0.0\nsamples = 2\nvalue = [0, 2]"] ;
431 -> 432 ;
433 [label="gini = 0.0\nsamples = 1\nvalue = [1, 0]"] ;
431 -> 433 ;
434 [label="TotalCharges <= 236.7\ngini = 0.375\nsamples = 4\nvalue = [1, 3]"] ;
424 -> 434 ;
435 [label="gini = 0.0\nsamples = 2\nvalue = [0, 2]"] ;
434 -> 435 ;
436 [label="MonthlyCharges <= 95.25\ngini = 0.5\nsamples = 2\nvalue = [1, 1]"] ;
434 -> 436 ;
437 [label="gini = 0.0\nsamples = 1\nvalue = [0, 1]"] ;
436 -> 437 ;
438 [label="gini = 0.0\nsamples = 1\nvalue = [1, 0]"] ;
436 -> 438 ;
439 [label="MonthlyCharges <= 94.725\ngini = 0.32\nsamples = 40\nvalue = [8, 32]"] ;
391 -> 439 ;
440 [label="MonthlyCharges <= 89.425\ngini = 0.295\nsamples = 39\nvalue = [7, 32]"] ;
439 -> 440 ;
441 [label="MonthlyCharges <= 86.675\ngini = 0.403\nsamples = 25\nvalue = [7, 18]"] ;
440 -> 441 ;
442 [label="MonthlyCharges <= 80.05\ngini = 0.255\nsamples = 20\nvalue = [3, 17]"] ;
441 -> 442 ;
443 [label="TotalCharges <= 615.575\ngini = 0.42\nsamples = 10\nvalue = [3, 7]"] ;
442 -> 443 ;
444 [label="StreamingTV <= 1.0\ngini = 0.346\nsamples = 9\nvalue = [2, 7]"] ;
443 -> 444 ;
445 [label="gini = 0.0\nsamples = 4\nvalue = [0, 4]"] ;
444 -> 445 ;
446 [label="MonthlyCharges <= 74.775\ngini = 0.48\nsamples = 5\nvalue = [2, 3]"] ;
444 -> 446 ;
447 [label="gini = 0.0\nsamples = 2\nvalue = [0, 2]"] ;
446 -> 447 ;
448 [label="tenure <= 1.0\ngini = 0.444\nsamples = 3\nvalue = [2, 1]"] ;
446 -> 448 ;
449 [label="gini = 0.0\nsamples = 1\nvalue = [0, 1]"] ;
448 -> 449 ;
450 [label="gini = 0.0\nsamples = 2\nvalue = [2, 0]"] ;
448 -> 450 ;
451 [label="gini = 0.0\nsamples = 1\nvalue = [1, 0]"] ;
443 -> 451 ;
452 [label="gini = 0.0\nsamples = 10\nvalue = [0, 10]"] ;
442 -> 452 ;
453 [label="Partner <= 0.5\ngini = 0.32\nsamples = 5\nvalue = [4, 1]"] ;
441 -> 453 ;
454 [label="gini = 0.0\nsamples = 1\nvalue = [0, 1]"] ;
453 -> 454 ;
455 [label="gini = 0.0\nsamples = 4\nvalue = [4, 0]"] ;
453 -> 455 ;
456 [label="gini = 0.0\nsamples = 14\nvalue = [0, 14]"] ;
440 -> 456 ;
457 [label="gini = 0.0\nsamples = 1\nvalue = [1, 0]"] ;
439 -> 457 ;
458 [label="TotalCharges <= 836.725\ngini = 0.499\nsamples = 21\nvalue = [11, 10]"] ;
390 -> 458 ;
459 [label="tenure <= 0.5\ngini = 0.375\nsamples = 12\nvalue = [9, 3]"] ;
458 -> 459 ;
460 [label="StreamingMovies <= 1.0\ngini = 0.444\nsamples = 3\nvalue = [1, 2]"] ;
459 -> 460 ;
461 [label="gini = 0.0\nsamples = 2\nvalue = [0, 2]"] ;
460 -> 461 ;
462 [label="gini = 0.0\nsamples = 1\nvalue = [1, 0]"] ;
460 -> 462 ;
463 [label="TechSupport <= 1.0\ngini = 0.198\nsamples = 9\nvalue = [8, 1]"] ;
459 -> 463 ;
464 [label="gini = 0.0\nsamples = 7\nvalue = [7, 0]"] ;
463 -> 464 ;
465 [label="MonthlyCharges <= 80.225\ngini = 0.5\nsamples = 2\nvalue = [1, 1]"] ;
463 -> 465 ;
466 [label="gini = 0.0\nsamples = 1\nvalue = [0, 1]"] ;
465 -> 466 ;
467 [label="gini = 0.0\nsamples = 1\nvalue = [1, 0]"] ;
465 -> 467 ;
468 [label="PhoneService <= 0.5\ngini = 0.346\nsamples = 9\nvalue = [2, 7]"] ;
458 -> 468 ;
469 [label="MonthlyCharges <= 95.0\ngini = 0.219\nsamples = 8\nvalue = [1, 7]"] ;
468 -> 469 ;
470 [label="gini = 0.0\nsamples = 7\nvalue = [0, 7]"] ;
469 -> 470 ;
471 [label="gini = 0.0\nsamples = 1\nvalue = [1, 0]"] ;
469 -> 471 ;
472 [label="gini = 0.0\nsamples = 1\nvalue = [1, 0]"] ;
468 -> 472 ;
473 [label="gini = 0.0\nsamples = 8\nvalue = [0, 8]"] ;
389 -> 473 ;
474 [label="gini = 0.0\nsamples = 3\nvalue = [3, 0]"] ;
388 -> 474 ;
475 [label="TotalCharges <= 397.675\ngini = 0.332\nsamples = 176\nvalue = [37, 139]"] ;
387 -> 475 ;
476 [label="MonthlyCharges <= 106.65\ngini = 0.235\nsamples = 81\nvalue = [11, 70]"] ;
475 -> 476 ;
477 [label="TotalCharges <= 153.775\ngini = 0.219\nsamples = 80\nvalue = [10, 70]"] ;
476 -> 477 ;
478 [label="MonthlyCharges <= 77.675\ngini = 0.5\nsamples = 4\nvalue = [2, 2]"] ;
477 -> 478 ;
479 [label="gini = 0.0\nsamples = 2\nvalue = [0, 2]"] ;
478 -> 479 ;
480 [label="gini = 0.0\nsamples = 2\nvalue = [2, 0]"] ;
478 -> 480 ;
481 [label="TotalCharges <= 336.925\ngini = 0.188\nsamples = 76\nvalue = [8, 68]"] ;
477 -> 481 ;
482 [label="TotalCharges <= 335.275\ngini = 0.234\nsamples = 59\nvalue = [8, 51]"] ;
481 -> 482 ;
483 [label="TotalCharges <= 257.325\ngini = 0.212\nsamples = 58\nvalue = [7, 51]"] ;
482 -> 483 ;
484 [label="TotalCharges <= 186.75\ngini = 0.105\nsamples = 36\nvalue = [2, 34]"] ;
483 -> 484 ;
485 [label="TotalCharges <= 185.35\ngini = 0.245\nsamples = 14\nvalue = [2, 12]"] ;
484 -> 485 ;
486 [label="StreamingTV <= 1.0\ngini = 0.142\nsamples = 13\nvalue = [1, 12]"] ;
485 -> 486 ;
487 [label="gini = 0.0\nsamples = 11\nvalue = [0, 11]"] ;
486 -> 487 ;
488 [label="tenure <= 2.5\ngini = 0.5\nsamples = 2\nvalue = [1, 1]"] ;
486 -> 488 ;
489 [label="gini = 0.0\nsamples = 1\nvalue = [1, 0]"] ;
488 -> 489 ;
490 [label="gini = 0.0\nsamples = 1\nvalue = [0, 1]"] ;
488 -> 490 ;
491 [label="gini = 0.0\nsamples = 1\nvalue = [1, 0]"] ;
485 -> 491 ;
492 [label="gini = 0.0\nsamples = 22\nvalue = [0, 22]"] ;
484 -> 492 ;
493 [label="gender <= 0.5\ngini = 0.351\nsamples = 22\nvalue = [5, 17]"] ;
483 -> 493 ;
494 [label="tenure <= 1.0\ngini = 0.494\nsamples = 9\nvalue = [5, 4]"] ;
493 -> 494 ;
495 [label="gini = 0.0\nsamples = 2\nvalue = [0, 2]"] ;
494 -> 495 ;
496 [label="MultipleLines <= 4.5\ngini = 0.408\nsamples = 7\nvalue = [5, 2]"] ;
494 -> 496 ;
497 [label="MonthlyCharges <= 95.75\ngini = 0.278\nsamples = 6\nvalue = [5, 1]"] ;
496 -> 497 ;
498 [label="gini = 0.0\nsamples = 5\nvalue = [5, 0]"] ;
497 -> 498 ;
499 [label="gini = 0.0\nsamples = 1\nvalue = [0, 1]"] ;
497 -> 499 ;
500 [label="gini = 0.0\nsamples = 1\nvalue = [0, 1]"] ;
496 -> 500 ;
501 [label="gini = 0.0\nsamples = 13\nvalue = [0, 13]"] ;
493 -> 501 ;
502 [label="gini = 0.0\nsamples = 1\nvalue = [1, 0]"] ;
482 -> 502 ;
503 [label="gini = 0.0\nsamples = 17\nvalue = [0, 17]"] ;
481 -> 503 ;
504 [label="gini = 0.0\nsamples = 1\nvalue = [1, 0]"] ;
476 -> 504 ;
505 [label="MonthlyCharges <= 80.175\ngini = 0.398\nsamples = 95\nvalue = [26, 69]"] ;
475 -> 505 ;
506 [label="MonthlyCharges <= 75.8\ngini = 0.499\nsamples = 21\nvalue = [10, 11]"] ;
505 -> 506 ;
507 [label="TotalCharges <= 408.075\ngini = 0.469\nsamples = 16\nvalue = [6, 10]"] ;
506 -> 507 ;
508 [label="gini = 0.0\nsamples = 1\nvalue = [1, 0]"] ;
507 -> 508 ;
509 [label="TotalCharges <= 530.475\ngini = 0.444\nsamples = 15\nvalue = [5, 10]"] ;
507 -> 509 ;
510 [label="gini = 0.0\nsamples = 5\nvalue = [0, 5]"] ;
509 -> 510 ;
511 [label="gender <= 0.5\ngini = 0.5\nsamples = 10\nvalue = [5, 5]"] ;
509 -> 511 ;
512 [label="tenure <= 1.5\ngini = 0.408\nsamples = 7\nvalue = [2, 5]"] ;
511 -> 512 ;
513 [label="MultipleLines <= 7.5\ngini = 0.444\nsamples = 3\nvalue = [2, 1]"] ;
512 -> 513 ;
514 [label="gini = 0.0\nsamples = 1\nvalue = [0, 1]"] ;
513 -> 514 ;
515 [label="gini = 0.0\nsamples = 2\nvalue = [2, 0]"] ;
513 -> 515 ;
516 [label="gini = 0.0\nsamples = 4\nvalue = [0, 4]"] ;
512 -> 516 ;
517 [label="gini = 0.0\nsamples = 3\nvalue = [3, 0]"] ;
511 -> 517 ;
518 [label="PhoneService <= 0.5\ngini = 0.32\nsamples = 5\nvalue = [4, 1]"] ;
506 -> 518 ;
519 [label="gini = 0.0\nsamples = 4\nvalue = [4, 0]"] ;
518 -> 519 ;
520 [label="gini = 0.0\nsamples = 1\nvalue = [0, 1]"] ;
518 -> 520 ;
521 [label="StreamingMovies <= 1.0\ngini = 0.339\nsamples = 74\nvalue = [16, 58]"] ;
505 -> 521 ;
522 [label="PhoneService <= 0.5\ngini = 0.298\nsamples = 66\nvalue = [12, 54]"] ;
521 -> 522 ;
523 [label="TotalCharges <= 513.125\ngini = 0.252\nsamples = 61\nvalue = [9, 52]"] ;
522 -> 523 ;
524 [label="MultipleLines <= 5.5\ngini = 0.463\nsamples = 11\nvalue = [4, 7]"] ;
523 -> 524 ;
525 [label="TotalCharges <= 493.475\ngini = 0.346\nsamples = 9\nvalue = [2, 7]"] ;
524 -> 525 ;
526 [label="MonthlyCharges <= 84.6\ngini = 0.219\nsamples = 8\nvalue = [1, 7]"] ;
525 -> 526 ;
527 [label="MonthlyCharges <= 83.575\ngini = 0.444\nsamples = 3\nvalue = [1, 2]"] ;
526 -> 527 ;
528 [label="gini = 0.0\nsamples = 2\nvalue = [0, 2]"] ;
527 -> 528 ;
529 [label="gini = 0.0\nsamples = 1\nvalue = [1, 0]"] ;
527 -> 529 ;
530 [label="gini = 0.0\nsamples = 5\nvalue = [0, 5]"] ;
526 -> 530 ;
531 [label="gini = 0.0\nsamples = 1\nvalue = [1, 0]"] ;
525 -> 531 ;
532 [label="gini = 0.0\nsamples = 2\nvalue = [2, 0]"] ;
524 -> 532 ;
533 [label="MonthlyCharges <= 85.425\ngini = 0.18\nsamples = 50\nvalue = [5, 45]"] ;
523 -> 533 ;
534 [label="gini = 0.0\nsamples = 14\nvalue = [0, 14]"] ;
533 -> 534 ;
535 [label="MonthlyCharges <= 85.525\ngini = 0.239\nsamples = 36\nvalue = [5, 31]"] ;
533 -> 535 ;
536 [label="gini = 0.0\nsamples = 1\nvalue = [1, 0]"] ;
535 -> 536 ;
537 [label="MonthlyCharges <= 97.125\ngini = 0.202\nsamples = 35\nvalue = [4, 31]"] ;
535 -> 537 ;
538 [label="MonthlyCharges <= 95.125\ngini = 0.308\nsamples = 21\nvalue = [4, 17]"] ;
537 -> 538 ;
539 [label="MonthlyCharges <= 89.95\ngini = 0.198\nsamples = 18\nvalue = [2, 16]"] ;
538 -> 539 ;
540 [label="gini = 0.0\nsamples = 8\nvalue = [0, 8]"] ;
539 -> 540 ;
541 [label="Partner <= 0.5\ngini = 0.32\nsamples = 10\nvalue = [2, 8]"] ;
539 -> 541 ;
542 [label="MonthlyCharges <= 94.05\ngini = 0.198\nsamples = 9\nvalue = [1, 8]"] ;
541 -> 542 ;
543 [label="gini = 0.0\nsamples = 5\nvalue = [0, 5]"] ;
542 -> 543 ;
544 [label="MonthlyCharges <= 94.25\ngini = 0.375\nsamples = 4\nvalue = [1, 3]"] ;
542 -> 544 ;
545 [label="gini = 0.0\nsamples = 1\nvalue = [1, 0]"] ;
544 -> 545 ;
546 [label="gini = 0.0\nsamples = 3\nvalue = [0, 3]"] ;
544 -> 546 ;
547 [label="gini = 0.0\nsamples = 1\nvalue = [1, 0]"] ;
541 -> 547 ;
548 [label="gender <= 0.5\ngini = 0.444\nsamples = 3\nvalue = [2, 1]"] ;
538 -> 548 ;
549 [label="gini = 0.0\nsamples = 1\nvalue = [0, 1]"] ;
548 -> 549 ;
550 [label="gini = 0.0\nsamples = 2\nvalue = [2, 0]"] ;
548 -> 550 ;
551 [label="gini = 0.0\nsamples = 14\nvalue = [0, 14]"] ;
537 -> 551 ;
552 [label="TotalCharges <= 914.075\ngini = 0.48\nsamples = 5\nvalue = [3, 2]"] ;
522 -> 552 ;
553 [label="gini = 0.0\nsamples = 3\nvalue = [3, 0]"] ;
552 -> 553 ;
554 [label="gini = 0.0\nsamples = 2\nvalue = [0, 2]"] ;
552 -> 554 ;
555 [label="TechSupport <= 1.0\ngini = 0.5\nsamples = 8\nvalue = [4, 4]"] ;
521 -> 555 ;
556 [label="MultipleLines <= 9.0\ngini = 0.444\nsamples = 6\nvalue = [4, 2]"] ;
555 -> 556 ;
557 [label="PhoneService <= 0.5\ngini = 0.32\nsamples = 5\nvalue = [4, 1]"] ;
556 -> 557 ;
558 [label="gini = 0.0\nsamples = 4\nvalue = [4, 0]"] ;
557 -> 558 ;
559 [label="gini = 0.0\nsamples = 1\nvalue = [0, 1]"] ;
557 -> 559 ;
560 [label="gini = 0.0\nsamples = 1\nvalue = [0, 1]"] ;
556 -> 560 ;
561 [label="gini = 0.0\nsamples = 2\nvalue = [0, 2]"] ;
555 -> 561 ;
562 [label="OnlineBackup <= 0.5\ngini = 0.482\nsamples = 1049\nvalue = [624, 425]"] ;
2 -> 562 ;
563 [label="TotalCharges <= 1249.8\ngini = 0.324\nsamples = 285\nvalue = [227, 58]"] ;
562 -> 563 ;
564 [label="PaperlessBilling <= 1.0\ngini = 0.395\nsamples = 166\nvalue = [121, 45]"] ;
563 -> 564 ;
565 [label="TotalCharges <= 315.075\ngini = 0.346\nsamples = 126\nvalue = [98, 28]"] ;
564 -> 565 ;
566 [label="gini = 0.0\nsamples = 2\nvalue = [0, 2]"] ;
565 -> 566 ;
567 [label="MultipleLines <= 14.5\ngini = 0.331\nsamples = 124\nvalue = [98, 26]"] ;
565 -> 567 ;
568 [label="TotalCharges <= 608.075\ngini = 0.176\nsamples = 41\nvalue = [37, 4]"] ;
567 -> 568 ;
569 [label="MonthlyCharges <= 45.3\ngini = 0.308\nsamples = 21\nvalue = [17, 4]"] ;
568 -> 569 ;
570 [label="PhoneService <= 0.5\ngini = 0.124\nsamples = 15\nvalue = [14, 1]"] ;
569 -> 570 ;
571 [label="gini = 0.0\nsamples = 11\nvalue = [11, 0]"] ;
570 -> 571 ;
572 [label="SeniorCitizen <= 0.5\ngini = 0.375\nsamples = 4\nvalue = [3, 1]"] ;
570 -> 572 ;
573 [label="gini = 0.0\nsamples = 3\nvalue = [3, 0]"] ;
572 -> 573 ;
574 [label="gini = 0.0\nsamples = 1\nvalue = [0, 1]"] ;
572 -> 574 ;
575 [label="MultipleLines <= 11.5\ngini = 0.5\nsamples = 6\nvalue = [3, 3]"] ;
569 -> 575 ;
576 [label="StreamingTV <= 1.0\ngini = 0.375\nsamples = 4\nvalue = [3, 1]"] ;
575 -> 576 ;
577 [label="gini = 0.0\nsamples = 3\nvalue = [3, 0]"] ;
576 -> 577 ;
578 [label="gini = 0.0\nsamples = 1\nvalue = [0, 1]"] ;
576 -> 578 ;
579 [label="gini = 0.0\nsamples = 2\nvalue = [0, 2]"] ;
575 -> 579 ;
580 [label="gini = 0.0\nsamples = 20\nvalue = [20, 0]"] ;
568 -> 580 ;
581 [label="PhoneService <= 0.5\ngini = 0.39\nsamples = 83\nvalue = [61, 22]"] ;
567 -> 581 ;
582 [label="TotalCharges <= 861.05\ngini = 0.444\nsamples = 60\nvalue = [40, 20]"] ;
581 -> 582 ;
583 [label="Contract <= 1.0\ngini = 0.5\nsamples = 26\nvalue = [13, 13]"] ;
582 -> 583 ;
584 [label="tenure <= 2.5\ngini = 0.483\nsamples = 22\nvalue = [13, 9]"] ;
583 -> 584 ;
585 [label="Dependents <= 0.5\ngini = 0.49\nsamples = 14\nvalue = [6, 8]"] ;
584 -> 585 ;
586 [label="MultipleLines <= 17.5\ngini = 0.42\nsamples = 10\nvalue = [3, 7]"] ;
585 -> 586 ;
587 [label="gini = 0.0\nsamples = 4\nvalue = [0, 4]"] ;
586 -> 587 ;
588 [label="TechSupport <= 1.0\ngini = 0.5\nsamples = 6\nvalue = [3, 3]"] ;
586 -> 588 ;
589 [label="tenure <= 1.5\ngini = 0.375\nsamples = 4\nvalue = [3, 1]"] ;
588 -> 589 ;
590 [label="StreamingMovies <= 1.0\ngini = 0.5\nsamples = 2\nvalue = [1, 1]"] ;
589 -> 590 ;
591 [label="gini = 0.0\nsamples = 1\nvalue = [0, 1]"] ;
590 -> 591 ;
592 [label="gini = 0.0\nsamples = 1\nvalue = [1, 0]"] ;
590 -> 592 ;
593 [label="gini = 0.0\nsamples = 2\nvalue = [2, 0]"] ;
589 -> 593 ;
594 [label="gini = 0.0\nsamples = 2\nvalue = [0, 2]"] ;
588 -> 594 ;
595 [label="TotalCharges <= 529.975\ngini = 0.375\nsamples = 4\nvalue = [3, 1]"] ;
585 -> 595 ;
596 [label="gini = 0.0\nsamples = 1\nvalue = [0, 1]"] ;
595 -> 596 ;
597 [label="gini = 0.0\nsamples = 3\nvalue = [3, 0]"] ;
595 -> 597 ;
598 [label="MonthlyCharges <= 51.375\ngini = 0.219\nsamples = 8\nvalue = [7, 1]"] ;
584 -> 598 ;
599 [label="gini = 0.0\nsamples = 7\nvalue = [7, 0]"] ;
598 -> 599 ;
600 [label="gini = 0.0\nsamples = 1\nvalue = [0, 1]"] ;
598 -> 600 ;
601 [label="gini = 0.0\nsamples = 4\nvalue = [0, 4]"] ;
583 -> 601 ;
602 [label="MultipleLines <= 15.5\ngini = 0.327\nsamples = 34\nvalue = [27, 7]"] ;
582 -> 602 ;
603 [label="gini = 0.0\nsamples = 1\nvalue = [0, 1]"] ;
602 -> 603 ;
604 [label="TotalCharges <= 1234.7\ngini = 0.298\nsamples = 33\nvalue = [27, 6]"] ;
602 -> 604 ;
605 [label="MultipleLines <= 29.5\ngini = 0.264\nsamples = 32\nvalue = [27, 5]"] ;
604 -> 605 ;
606 [label="TotalCharges <= 904.625\ngini = 0.198\nsamples = 27\nvalue = [24, 3]"] ;
605 -> 606 ;
607 [label="TotalCharges <= 876.85\ngini = 0.444\nsamples = 6\nvalue = [4, 2]"] ;
606 -> 607 ;
608 [label="gini = 0.0\nsamples = 3\nvalue = [3, 0]"] ;
607 -> 608 ;
609 [label="gender <= 0.5\ngini = 0.444\nsamples = 3\nvalue = [1, 2]"] ;
607 -> 609 ;
610 [label="gini = 0.0\nsamples = 1\nvalue = [1, 0]"] ;
609 -> 610 ;
611 [label="gini = 0.0\nsamples = 2\nvalue = [0, 2]"] ;
609 -> 611 ;
612 [label="tenure <= 1.5\ngini = 0.091\nsamples = 21\nvalue = [20, 1]"] ;
606 -> 612 ;
613 [label="TotalCharges <= 1052.3\ngini = 0.278\nsamples = 6\nvalue = [5, 1]"] ;
612 -> 613 ;
614 [label="gini = 0.0\nsamples = 1\nvalue = [0, 1]"] ;
613 -> 614 ;
615 [label="gini = 0.0\nsamples = 5\nvalue = [5, 0]"] ;
613 -> 615 ;
616 [label="gini = 0.0\nsamples = 15\nvalue = [15, 0]"] ;
612 -> 616 ;
617 [label="gender <= 0.5\ngini = 0.48\nsamples = 5\nvalue = [3, 2]"] ;
605 -> 617 ;
618 [label="TotalCharges <= 1174.4\ngini = 0.444\nsamples = 3\nvalue = [1, 2]"] ;
617 -> 618 ;
619 [label="gini = 0.0\nsamples = 2\nvalue = [0, 2]"] ;
618 -> 619 ;
620 [label="gini = 0.0\nsamples = 1\nvalue = [1, 0]"] ;
618 -> 620 ;
621 [label="gini = 0.0\nsamples = 2\nvalue = [2, 0]"] ;
617 -> 621 ;
622 [label="gini = 0.0\nsamples = 1\nvalue = [0, 1]"] ;
604 -> 622 ;
623 [label="TotalCharges <= 1107.05\ngini = 0.159\nsamples = 23\nvalue = [21, 2]"] ;
581 -> 623 ;
624 [label="gini = 0.0\nsamples = 20\nvalue = [20, 0]"] ;
623 -> 624 ;
625 [label="MultipleLines <= 41.0\ngini = 0.444\nsamples = 3\nvalue = [1, 2]"] ;
623 -> 625 ;
626 [label="gini = 0.0\nsamples = 2\nvalue = [0, 2]"] ;
625 -> 626 ;
627 [label="gini = 0.0\nsamples = 1\nvalue = [1, 0]"] ;
625 -> 627 ;
628 [label="MonthlyCharges <= 67.85\ngini = 0.489\nsamples = 40\nvalue = [23, 17]"] ;
564 -> 628 ;
629 [label="Contract <= 1.0\ngini = 0.495\nsamples = 31\nvalue = [14, 17]"] ;
628 -> 629 ;
630 [label="TechSupport <= 1.0\ngini = 0.391\nsamples = 15\nvalue = [4, 11]"] ;
629 -> 630 ;
631 [label="tenure <= 1.5\ngini = 0.26\nsamples = 13\nvalue = [2, 11]"] ;
630 -> 631 ;
632 [label="MultipleLines <= 20.0\ngini = 0.48\nsamples = 5\nvalue = [2, 3]"] ;
631 -> 632 ;
633 [label="MonthlyCharges <= 64.125\ngini = 0.444\nsamples = 3\nvalue = [2, 1]"] ;
632 -> 633 ;
634 [label="gini = 0.0\nsamples = 2\nvalue = [2, 0]"] ;
633 -> 634 ;
635 [label="gini = 0.0\nsamples = 1\nvalue = [0, 1]"] ;
633 -> 635 ;
636 [label="gini = 0.0\nsamples = 2\nvalue = [0, 2]"] ;
632 -> 636 ;
637 [label="gini = 0.0\nsamples = 8\nvalue = [0, 8]"] ;
631 -> 637 ;
638 [label="gini = 0.0\nsamples = 2\nvalue = [2, 0]"] ;
630 -> 638 ;
639 [label="TotalCharges <= 1169.55\ngini = 0.469\nsamples = 16\nvalue = [10, 6]"] ;
629 -> 639 ;
640 [label="PhoneService <= 0.5\ngini = 0.444\nsamples = 15\nvalue = [10, 5]"] ;
639 -> 640 ;
641 [label="Dependents <= 0.5\ngini = 0.408\nsamples = 14\nvalue = [10, 4]"] ;
640 -> 641 ;
642 [label="gender <= 0.5\ngini = 0.219\nsamples = 8\nvalue = [7, 1]"] ;
641 -> 642 ;
643 [label="gini = 0.0\nsamples = 6\nvalue = [6, 0]"] ;
642 -> 643 ;
644 [label="MonthlyCharges <= 52.875\ngini = 0.5\nsamples = 2\nvalue = [1, 1]"] ;
642 -> 644 ;
645 [label="gini = 0.0\nsamples = 1\nvalue = [0, 1]"] ;
644 -> 645 ;
646 [label="gini = 0.0\nsamples = 1\nvalue = [1, 0]"] ;
644 -> 646 ;
647 [label="MonthlyCharges <= 49.275\ngini = 0.5\nsamples = 6\nvalue = [3, 3]"] ;
641 -> 647 ;
648 [label="MonthlyCharges <= 45.825\ngini = 0.375\nsamples = 4\nvalue = [1, 3]"] ;
647 -> 648 ;
649 [label="gini = 0.0\nsamples = 1\nvalue = [1, 0]"] ;
648 -> 649 ;
650 [label="gini = 0.0\nsamples = 3\nvalue = [0, 3]"] ;
648 -> 650 ;
651 [label="gini = 0.0\nsamples = 2\nvalue = [2, 0]"] ;
647 -> 651 ;
652 [label="gini = 0.0\nsamples = 1\nvalue = [0, 1]"] ;
640 -> 652 ;
653 [label="gini = 0.0\nsamples = 1\nvalue = [0, 1]"] ;
639 -> 653 ;
654 [label="gini = 0.0\nsamples = 9\nvalue = [9, 0]"] ;
628 -> 654 ;
655 [label="InternetService <= 0.5\ngini = 0.195\nsamples = 119\nvalue = [106, 13]"] ;
563 -> 655 ;
656 [label="TotalCharges <= 2009.625\ngini = 0.331\nsamples = 43\nvalue = [34, 9]"] ;
655 -> 656 ;
657 [label="Dependents <= 0.5\ngini = 0.165\nsamples = 22\nvalue = [20, 2]"] ;
656 -> 657 ;
658 [label="gini = 0.0\nsamples = 13\nvalue = [13, 0]"] ;
657 -> 658 ;
659 [label="SeniorCitizen <= 0.5\ngini = 0.346\nsamples = 9\nvalue = [7, 2]"] ;
657 -> 659 ;
660 [label="gini = 0.0\nsamples = 1\nvalue = [0, 1]"] ;
659 -> 660 ;
661 [label="TotalCharges <= 1362.225\ngini = 0.219\nsamples = 8\nvalue = [7, 1]"] ;
659 -> 661 ;
662 [label="TechSupport <= 1.0\ngini = 0.5\nsamples = 2\nvalue = [1, 1]"] ;
661 -> 662 ;
663 [label="gini = 0.0\nsamples = 1\nvalue = [1, 0]"] ;
662 -> 663 ;
664 [label="gini = 0.0\nsamples = 1\nvalue = [0, 1]"] ;
662 -> 664 ;
665 [label="gini = 0.0\nsamples = 6\nvalue = [6, 0]"] ;
661 -> 665 ;
666 [label="TotalCharges <= 2557.925\ngini = 0.444\nsamples = 21\nvalue = [14, 7]"] ;
656 -> 666 ;
667 [label="PhoneService <= 0.5\ngini = 0.469\nsamples = 8\nvalue = [3, 5]"] ;
666 -> 667 ;
668 [label="MonthlyCharges <= 52.35\ngini = 0.278\nsamples = 6\nvalue = [1, 5]"] ;
667 -> 668 ;
669 [label="gini = 0.0\nsamples = 4\nvalue = [0, 4]"] ;
668 -> 669 ;
670 [label="TotalCharges <= 2278.8\ngini = 0.5\nsamples = 2\nvalue = [1, 1]"] ;
668 -> 670 ;
671 [label="gini = 0.0\nsamples = 1\nvalue = [1, 0]"] ;
670 -> 671 ;
672 [label="gini = 0.0\nsamples = 1\nvalue = [0, 1]"] ;
670 -> 672 ;
673 [label="gini = 0.0\nsamples = 2\nvalue = [2, 0]"] ;
667 -> 673 ;
674 [label="StreamingMovies <= 1.0\ngini = 0.26\nsamples = 13\nvalue = [11, 2]"] ;
666 -> 674 ;
675 [label="tenure <= 1.5\ngini = 0.375\nsamples = 8\nvalue = [6, 2]"] ;
674 -> 675 ;
676 [label="gini = 0.0\nsamples = 3\nvalue = [3, 0]"] ;
675 -> 676 ;
677 [label="TotalCharges <= 2658.975\ngini = 0.48\nsamples = 5\nvalue = [3, 2]"] ;
675 -> 677 ;
678 [label="gini = 0.0\nsamples = 1\nvalue = [0, 1]"] ;
677 -> 678 ;
679 [label="MultipleLines <= 59.5\ngini = 0.375\nsamples = 4\nvalue = [3, 1]"] ;
677 -> 679 ;
680 [label="gini = 0.0\nsamples = 3\nvalue = [3, 0]"] ;
679 -> 680 ;
681 [label="gini = 0.0\nsamples = 1\nvalue = [0, 1]"] ;
679 -> 681 ;
682 [label="gini = 0.0\nsamples = 5\nvalue = [5, 0]"] ;
674 -> 682 ;
683 [label="tenure <= 1.5\ngini = 0.1\nsamples = 76\nvalue = [72, 4]"] ;
655 -> 683 ;
684 [label="gini = 0.0\nsamples = 37\nvalue = [37, 0]"] ;
683 -> 684 ;
685 [label="TotalCharges <= 1557.35\ngini = 0.184\nsamples = 39\nvalue = [35, 4]"] ;
683 -> 685 ;
686 [label="gini = 0.0\nsamples = 13\nvalue = [13, 0]"] ;
685 -> 686 ;
687 [label="TotalCharges <= 1634.275\ngini = 0.26\nsamples = 26\nvalue = [22, 4]"] ;
685 -> 687 ;
688 [label="gini = 0.0\nsamples = 1\nvalue = [0, 1]"] ;
687 -> 688 ;
689 [label="StreamingMovies <= 1.0\ngini = 0.211\nsamples = 25\nvalue = [22, 3]"] ;
687 -> 689 ;
690 [label="StreamingTV <= 1.0\ngini = 0.355\nsamples = 13\nvalue = [10, 3]"] ;
689 -> 690 ;
691 [label="TechSupport <= 1.0\ngini = 0.469\nsamples = 8\nvalue = [5, 3]"] ;
690 -> 691 ;
692 [label="MonthlyCharges <= 50.2\ngini = 0.375\nsamples = 4\nvalue = [1, 3]"] ;
691 -> 692 ;
693 [label="gini = 0.0\nsamples = 1\nvalue = [1, 0]"] ;
692 -> 693 ;
694 [label="gini = 0.0\nsamples = 3\nvalue = [0, 3]"] ;
692 -> 694 ;
695 [label="gini = 0.0\nsamples = 4\nvalue = [4, 0]"] ;
691 -> 695 ;
696 [label="gini = 0.0\nsamples = 5\nvalue = [5, 0]"] ;
690 -> 696 ;
697 [label="gini = 0.0\nsamples = 12\nvalue = [12, 0]"] ;
689 -> 697 ;
698 [label="tenure <= 1.5\ngini = 0.499\nsamples = 764\nvalue = [397, 367]"] ;
562 -> 698 ;
699 [label="MultipleLines <= 51.5\ngini = 0.47\nsamples = 270\nvalue = [168, 102]"] ;
698 -> 699 ;
700 [label="MonthlyCharges <= 103.825\ngini = 0.487\nsamples = 219\nvalue = [127, 92]"] ;
699 -> 700 ;
701 [label="gender <= 0.5\ngini = 0.478\nsamples = 207\nvalue = [125, 82]"] ;
700 -> 701 ;
702 [label="StreamingTV <= 1.0\ngini = 0.498\nsamples = 106\nvalue = [56, 50]"] ;
701 -> 702 ;
703 [label="Partner <= 0.5\ngini = 0.496\nsamples = 66\nvalue = [30, 36]"] ;
702 -> 703 ;
704 [label="MonthlyCharges <= 94.375\ngini = 0.497\nsamples = 50\nvalue = [27, 23]"] ;
703 -> 704 ;
705 [label="MonthlyCharges <= 88.65\ngini = 0.499\nsamples = 40\nvalue = [19, 21]"] ;
704 -> 705 ;
706 [label="MonthlyCharges <= 75.7\ngini = 0.489\nsamples = 33\nvalue = [19, 14]"] ;
705 -> 706 ;
707 [label="MonthlyCharges <= 69.9\ngini = 0.48\nsamples = 15\nvalue = [6, 9]"] ;
706 -> 707 ;
708 [label="TotalCharges <= 1267.575\ngini = 0.375\nsamples = 4\nvalue = [3, 1]"] ;
707 -> 708 ;
709 [label="gini = 0.0\nsamples = 1\nvalue = [0, 1]"] ;
708 -> 709 ;
710 [label="gini = 0.0\nsamples = 3\nvalue = [3, 0]"] ;
708 -> 710 ;
711 [label="MultipleLines <= 18.5\ngini = 0.397\nsamples = 11\nvalue = [3, 8]"] ;
707 -> 711 ;
712 [label="MultipleLines <= 14.5\ngini = 0.444\nsamples = 3\nvalue = [2, 1]"] ;
711 -> 712 ;
713 [label="gini = 0.0\nsamples = 1\nvalue = [0, 1]"] ;
712 -> 713 ;
714 [label="gini = 0.0\nsamples = 2\nvalue = [2, 0]"] ;
712 -> 714 ;
715 [label="MonthlyCharges <= 72.175\ngini = 0.219\nsamples = 8\nvalue = [1, 7]"] ;
711 -> 715 ;
716 [label="MultipleLines <= 33.5\ngini = 0.444\nsamples = 3\nvalue = [1, 2]"] ;
715 -> 716 ;
717 [label="gini = 0.0\nsamples = 1\nvalue = [1, 0]"] ;
716 -> 717 ;
718 [label="gini = 0.0\nsamples = 2\nvalue = [0, 2]"] ;
716 -> 718 ;
719 [label="gini = 0.0\nsamples = 5\nvalue = [0, 5]"] ;
715 -> 719 ;
720 [label="MultipleLines <= 41.5\ngini = 0.401\nsamples = 18\nvalue = [13, 5]"] ;
706 -> 720 ;
721 [label="MonthlyCharges <= 85.025\ngini = 0.305\nsamples = 16\nvalue = [13, 3]"] ;
720 -> 721 ;
722 [label="TotalCharges <= 2309.7\ngini = 0.153\nsamples = 12\nvalue = [11, 1]"] ;
721 -> 722 ;
723 [label="gini = 0.0\nsamples = 8\nvalue = [8, 0]"] ;
722 -> 723 ;
724 [label="TotalCharges <= 2620.025\ngini = 0.375\nsamples = 4\nvalue = [3, 1]"] ;
722 -> 724 ;
725 [label="gini = 0.0\nsamples = 1\nvalue = [0, 1]"] ;
724 -> 725 ;
726 [label="gini = 0.0\nsamples = 3\nvalue = [3, 0]"] ;
724 -> 726 ;
727 [label="MonthlyCharges <= 86.975\ngini = 0.5\nsamples = 4\nvalue = [2, 2]"] ;
721 -> 727 ;
728 [label="gini = 0.0\nsamples = 2\nvalue = [0, 2]"] ;
727 -> 728 ;
729 [label="gini = 0.0\nsamples = 2\nvalue = [2, 0]"] ;
727 -> 729 ;
730 [label="gini = 0.0\nsamples = 2\nvalue = [0, 2]"] ;
720 -> 730 ;
731 [label="gini = 0.0\nsamples = 7\nvalue = [0, 7]"] ;
705 -> 731 ;
732 [label="TechSupport <= 1.0\ngini = 0.32\nsamples = 10\nvalue = [8, 2]"] ;
704 -> 732 ;
733 [label="Dependents <= 0.5\ngini = 0.48\nsamples = 5\nvalue = [3, 2]"] ;
732 -> 733 ;
734 [label="tenure <= 0.5\ngini = 0.444\nsamples = 3\nvalue = [1, 2]"] ;
733 -> 734 ;
735 [label="gini = 0.0\nsamples = 2\nvalue = [0, 2]"] ;
734 -> 735 ;
736 [label="gini = 0.0\nsamples = 1\nvalue = [1, 0]"] ;
734 -> 736 ;
737 [label="gini = 0.0\nsamples = 2\nvalue = [2, 0]"] ;
733 -> 737 ;
738 [label="gini = 0.0\nsamples = 5\nvalue = [5, 0]"] ;
732 -> 738 ;
739 [label="SeniorCitizen <= 0.5\ngini = 0.305\nsamples = 16\nvalue = [3, 13]"] ;
703 -> 739 ;
740 [label="MonthlyCharges <= 89.35\ngini = 0.5\nsamples = 6\nvalue = [3, 3]"] ;
739 -> 740 ;
741 [label="Contract <= 1.0\ngini = 0.375\nsamples = 4\nvalue = [3, 1]"] ;
740 -> 741 ;
742 [label="gini = 0.0\nsamples = 1\nvalue = [0, 1]"] ;
741 -> 742 ;
743 [label="gini = 0.0\nsamples = 3\nvalue = [3, 0]"] ;
741 -> 743 ;
744 [label="gini = 0.0\nsamples = 2\nvalue = [0, 2]"] ;
740 -> 744 ;
745 [label="gini = 0.0\nsamples = 10\nvalue = [0, 10]"] ;
739 -> 745 ;
746 [label="StreamingMovies <= 1.0\ngini = 0.455\nsamples = 40\nvalue = [26, 14]"] ;
702 -> 746 ;
747 [label="TotalCharges <= 2224.45\ngini = 0.492\nsamples = 32\nvalue = [18, 14]"] ;
746 -> 747 ;
748 [label="MonthlyCharges <= 96.9\ngini = 0.298\nsamples = 11\nvalue = [9, 2]"] ;
747 -> 748 ;
749 [label="TechSupport <= 1.0\ngini = 0.18\nsamples = 10\nvalue = [9, 1]"] ;
748 -> 749 ;
750 [label="gini = 0.0\nsamples = 7\nvalue = [7, 0]"] ;
749 -> 750 ;
751 [label="TotalCharges <= 1852.125\ngini = 0.444\nsamples = 3\nvalue = [2, 1]"] ;
749 -> 751 ;
752 [label="gini = 0.0\nsamples = 1\nvalue = [0, 1]"] ;
751 -> 752 ;
753 [label="gini = 0.0\nsamples = 2\nvalue = [2, 0]"] ;
751 -> 753 ;
754 [label="gini = 0.0\nsamples = 1\nvalue = [0, 1]"] ;
748 -> 754 ;
755 [label="SeniorCitizen <= 0.5\ngini = 0.49\nsamples = 21\nvalue = [9, 12]"] ;
747 -> 755 ;
756 [label="MultipleLines <= 27.5\ngini = 0.375\nsamples = 4\nvalue = [3, 1]"] ;
755 -> 756 ;
757 [label="gini = 0.0\nsamples = 1\nvalue = [0, 1]"] ;
756 -> 757 ;
758 [label="gini = 0.0\nsamples = 3\nvalue = [3, 0]"] ;
756 -> 758 ;
759 [label="MultipleLines <= 38.5\ngini = 0.457\nsamples = 17\nvalue = [6, 11]"] ;
755 -> 759 ;
760 [label="MultipleLines <= 28.0\ngini = 0.32\nsamples = 10\nvalue = [2, 8]"] ;
759 -> 760 ;
761 [label="MultipleLines <= 25.5\ngini = 0.5\nsamples = 4\nvalue = [2, 2]"] ;
760 -> 761 ;
762 [label="gini = 0.0\nsamples = 2\nvalue = [0, 2]"] ;
761 -> 762 ;
763 [label="gini = 0.0\nsamples = 2\nvalue = [2, 0]"] ;
761 -> 763 ;
764 [label="gini = 0.0\nsamples = 6\nvalue = [0, 6]"] ;
760 -> 764 ;
765 [label="Contract <= 1.0\ngini = 0.49\nsamples = 7\nvalue = [4, 3]"] ;
759 -> 765 ;
766 [label="OnlineSecurity <= 1.0\ngini = 0.375\nsamples = 4\nvalue = [1, 3]"] ;
765 -> 766 ;
767 [label="gini = 0.0\nsamples = 1\nvalue = [1, 0]"] ;
766 -> 767 ;
768 [label="gini = 0.0\nsamples = 3\nvalue = [0, 3]"] ;
766 -> 768 ;
769 [label="gini = 0.0\nsamples = 3\nvalue = [3, 0]"] ;
765 -> 769 ;
770 [label="gini = 0.0\nsamples = 8\nvalue = [8, 0]"] ;
746 -> 770 ;
771 [label="MonthlyCharges <= 93.975\ngini = 0.433\nsamples = 101\nvalue = [69, 32]"] ;
701 -> 771 ;
772 [label="TotalCharges <= 1390.175\ngini = 0.385\nsamples = 77\nvalue = [57, 20]"] ;
771 -> 772 ;
773 [label="TotalCharges <= 1075.325\ngini = 0.49\nsamples = 21\nvalue = [12, 9]"] ;
772 -> 773 ;
774 [label="PhoneService <= 0.5\ngini = 0.219\nsamples = 8\nvalue = [7, 1]"] ;
773 -> 774 ;
775 [label="gini = 0.0\nsamples = 5\nvalue = [5, 0]"] ;
774 -> 775 ;
776 [label="MonthlyCharges <= 74.475\ngini = 0.444\nsamples = 3\nvalue = [2, 1]"] ;
774 -> 776 ;
777 [label="gini = 0.0\nsamples = 1\nvalue = [0, 1]"] ;
776 -> 777 ;
778 [label="gini = 0.0\nsamples = 2\nvalue = [2, 0]"] ;
776 -> 778 ;
779 [label="MonthlyCharges <= 70.625\ngini = 0.473\nsamples = 13\nvalue = [5, 8]"] ;
773 -> 779 ;
780 [label="gini = 0.0\nsamples = 2\nvalue = [2, 0]"] ;
779 -> 780 ;
781 [label="MonthlyCharges <= 74.375\ngini = 0.397\nsamples = 11\nvalue = [3, 8]"] ;
779 -> 781 ;
782 [label="gini = 0.0\nsamples = 4\nvalue = [0, 4]"] ;
781 -> 782 ;
783 [label="MultipleLines <= 15.5\ngini = 0.49\nsamples = 7\nvalue = [3, 4]"] ;
781 -> 783 ;
784 [label="gini = 0.0\nsamples = 4\nvalue = [0, 4]"] ;
783 -> 784 ;
785 [label="gini = 0.0\nsamples = 3\nvalue = [3, 0]"] ;
783 -> 785 ;
786 [label="MonthlyCharges <= 80.45\ngini = 0.316\nsamples = 56\nvalue = [45, 11]"] ;
772 -> 786 ;
787 [label="MonthlyCharges <= 80.075\ngini = 0.434\nsamples = 22\nvalue = [15, 7]"] ;
786 -> 787 ;
788 [label="MultipleLines <= 47.5\ngini = 0.375\nsamples = 20\nvalue = [15, 5]"] ;
787 -> 788 ;
789 [label="MultipleLines <= 36.0\ngini = 0.291\nsamples = 17\nvalue = [14, 3]"] ;
788 -> 789 ;
790 [label="PhoneService <= 0.5\ngini = 0.397\nsamples = 11\nvalue = [8, 3]"] ;
789 -> 790 ;
791 [label="MultipleLines <= 34.5\ngini = 0.32\nsamples = 10\nvalue = [8, 2]"] ;
790 -> 791 ;
792 [label="TotalCharges <= 1459.025\ngini = 0.198\nsamples = 9\nvalue = [8, 1]"] ;
791 -> 792 ;
793 [label="MonthlyCharges <= 74.725\ngini = 0.5\nsamples = 2\nvalue = [1, 1]"] ;
792 -> 793 ;
794 [label="gini = 0.0\nsamples = 1\nvalue = [0, 1]"] ;
793 -> 794 ;
795 [label="gini = 0.0\nsamples = 1\nvalue = [1, 0]"] ;
793 -> 795 ;
796 [label="gini = 0.0\nsamples = 7\nvalue = [7, 0]"] ;
792 -> 796 ;
797 [label="gini = 0.0\nsamples = 1\nvalue = [0, 1]"] ;
791 -> 797 ;
798 [label="gini = 0.0\nsamples = 1\nvalue = [0, 1]"] ;
790 -> 798 ;
799 [label="gini = 0.0\nsamples = 6\nvalue = [6, 0]"] ;
789 -> 799 ;
800 [label="MonthlyCharges <= 74.9\ngini = 0.444\nsamples = 3\nvalue = [1, 2]"] ;
788 -> 800 ;
801 [label="gini = 0.0\nsamples = 1\nvalue = [1, 0]"] ;
800 -> 801 ;
802 [label="gini = 0.0\nsamples = 2\nvalue = [0, 2]"] ;
800 -> 802 ;
803 [label="gini = 0.0\nsamples = 2\nvalue = [0, 2]"] ;
787 -> 803 ;
804 [label="PhoneService <= 0.5\ngini = 0.208\nsamples = 34\nvalue = [30, 4]"] ;
786 -> 804 ;
805 [label="MultipleLines <= 16.5\ngini = 0.278\nsamples = 24\nvalue = [20, 4]"] ;
804 -> 805 ;
806 [label="MonthlyCharges <= 87.05\ngini = 0.5\nsamples = 2\nvalue = [1, 1]"] ;
805 -> 806 ;
807 [label="gini = 0.0\nsamples = 1\nvalue = [1, 0]"] ;
806 -> 807 ;
808 [label="gini = 0.0\nsamples = 1\nvalue = [0, 1]"] ;
806 -> 808 ;
809 [label="TechSupport <= 1.0\ngini = 0.236\nsamples = 22\nvalue = [19, 3]"] ;
805 -> 809 ;
810 [label="MonthlyCharges <= 85.45\ngini = 0.124\nsamples = 15\nvalue = [14, 1]"] ;
809 -> 810 ;
811 [label="MonthlyCharges <= 85.225\ngini = 0.32\nsamples = 5\nvalue = [4, 1]"] ;
810 -> 811 ;
812 [label="gini = 0.0\nsamples = 4\nvalue = [4, 0]"] ;
811 -> 812 ;
813 [label="gini = 0.0\nsamples = 1\nvalue = [0, 1]"] ;
811 -> 813 ;
814 [label="gini = 0.0\nsamples = 10\nvalue = [10, 0]"] ;
810 -> 814 ;
815 [label="TotalCharges <= 2165.675\ngini = 0.408\nsamples = 7\nvalue = [5, 2]"] ;
809 -> 815 ;
816 [label="gini = 0.0\nsamples = 3\nvalue = [3, 0]"] ;
815 -> 816 ;
817 [label="TotalCharges <= 4075.375\ngini = 0.5\nsamples = 4\nvalue = [2, 2]"] ;
815 -> 817 ;
818 [label="gini = 0.0\nsamples = 2\nvalue = [0, 2]"] ;
817 -> 818 ;
819 [label="gini = 0.0\nsamples = 2\nvalue = [2, 0]"] ;
817 -> 819 ;
820 [label="gini = 0.0\nsamples = 10\nvalue = [10, 0]"] ;
804 -> 820 ;
821 [label="TechSupport <= 1.0\ngini = 0.5\nsamples = 24\nvalue = [12, 12]"] ;
771 -> 821 ;
822 [label="StreamingTV <= 1.0\ngini = 0.375\nsamples = 12\nvalue = [3, 9]"] ;
821 -> 822 ;
823 [label="gini = 0.0\nsamples = 6\nvalue = [0, 6]"] ;
822 -> 823 ;
824 [label="TotalCharges <= 2292.5\ngini = 0.5\nsamples = 6\nvalue = [3, 3]"] ;
822 -> 824 ;
825 [label="gini = 0.0\nsamples = 2\nvalue = [0, 2]"] ;
824 -> 825 ;
826 [label="MonthlyCharges <= 99.025\ngini = 0.375\nsamples = 4\nvalue = [3, 1]"] ;
824 -> 826 ;
827 [label="gini = 0.0\nsamples = 2\nvalue = [2, 0]"] ;
826 -> 827 ;
828 [label="MonthlyCharges <= 100.2\ngini = 0.5\nsamples = 2\nvalue = [1, 1]"] ;
826 -> 828 ;
829 [label="gini = 0.0\nsamples = 1\nvalue = [0, 1]"] ;
828 -> 829 ;
830 [label="gini = 0.0\nsamples = 1\nvalue = [1, 0]"] ;
828 -> 830 ;
831 [label="TotalCharges <= 3825.275\ngini = 0.375\nsamples = 12\nvalue = [9, 3]"] ;
821 -> 831 ;
832 [label="gini = 0.0\nsamples = 8\nvalue = [8, 0]"] ;
831 -> 832 ;
833 [label="PhoneService <= 0.5\ngini = 0.375\nsamples = 4\nvalue = [1, 3]"] ;
831 -> 833 ;
834 [label="gini = 0.0\nsamples = 3\nvalue = [0, 3]"] ;
833 -> 834 ;
835 [label="gini = 0.0\nsamples = 1\nvalue = [1, 0]"] ;
833 -> 835 ;
836 [label="tenure <= 0.5\ngini = 0.278\nsamples = 12\nvalue = [2, 10]"] ;
700 -> 836 ;
837 [label="TotalCharges <= 1899.45\ngini = 0.165\nsamples = 11\nvalue = [1, 10]"] ;
836 -> 837 ;
838 [label="gini = 0.0\nsamples = 1\nvalue = [1, 0]"] ;
837 -> 838 ;
839 [label="gini = 0.0\nsamples = 10\nvalue = [0, 10]"] ;
837 -> 839 ;
840 [label="gini = 0.0\nsamples = 1\nvalue = [1, 0]"] ;
836 -> 840 ;
841 [label="TotalCharges <= 5143.8\ngini = 0.315\nsamples = 51\nvalue = [41, 10]"] ;
699 -> 841 ;
842 [label="gini = 0.0\nsamples = 21\nvalue = [21, 0]"] ;
841 -> 842 ;
843 [label="TotalCharges <= 5260.025\ngini = 0.444\nsamples = 30\nvalue = [20, 10]"] ;
841 -> 843 ;
844 [label="gini = 0.0\nsamples = 2\nvalue = [0, 2]"] ;
843 -> 844 ;
845 [label="Dependents <= 0.5\ngini = 0.408\nsamples = 28\nvalue = [20, 8]"] ;
843 -> 845 ;
846 [label="gini = 0.0\nsamples = 6\nvalue = [6, 0]"] ;
845 -> 846 ;
847 [label="Contract <= 1.0\ngini = 0.463\nsamples = 22\nvalue = [14, 8]"] ;
845 -> 847 ;
848 [label="TotalCharges <= 5433.0\ngini = 0.219\nsamples = 8\nvalue = [7, 1]"] ;
847 -> 848 ;
849 [label="gini = 0.0\nsamples = 1\nvalue = [0, 1]"] ;
848 -> 849 ;
850 [label="gini = 0.0\nsamples = 7\nvalue = [7, 0]"] ;
848 -> 850 ;
851 [label="MultipleLines <= 55.5\ngini = 0.5\nsamples = 14\nvalue = [7, 7]"] ;
847 -> 851 ;
852 [label="gini = 0.0\nsamples = 3\nvalue = [3, 0]"] ;
851 -> 852 ;
853 [label="TotalCharges <= 5955.4\ngini = 0.463\nsamples = 11\nvalue = [4, 7]"] ;
851 -> 853 ;
854 [label="PhoneService <= 0.5\ngini = 0.278\nsamples = 6\nvalue = [1, 5]"] ;
853 -> 854 ;
855 [label="gini = 0.0\nsamples = 5\nvalue = [0, 5]"] ;
854 -> 855 ;
856 [label="gini = 0.0\nsamples = 1\nvalue = [1, 0]"] ;
854 -> 856 ;
857 [label="TotalCharges <= 6450.575\ngini = 0.48\nsamples = 5\nvalue = [3, 2]"] ;
853 -> 857 ;
858 [label="gini = 0.0\nsamples = 2\nvalue = [2, 0]"] ;
857 -> 858 ;
859 [label="tenure <= 0.5\ngini = 0.444\nsamples = 3\nvalue = [1, 2]"] ;
857 -> 859 ;
860 [label="gini = 0.0\nsamples = 1\nvalue = [1, 0]"] ;
859 -> 860 ;
861 [label="gini = 0.0\nsamples = 2\nvalue = [0, 2]"] ;
859 -> 861 ;
862 [label="TotalCharges <= 1537.275\ngini = 0.497\nsamples = 494\nvalue = [229, 265]"] ;
698 -> 862 ;
863 [label="TotalCharges <= 914.375\ngini = 0.451\nsamples = 131\nvalue = [45, 86]"] ;
862 -> 863 ;
864 [label="TechSupport <= 1.0\ngini = 0.26\nsamples = 13\nvalue = [11, 2]"] ;
863 -> 864 ;
865 [label="TotalCharges <= 834.45\ngini = 0.153\nsamples = 12\nvalue = [11, 1]"] ;
864 -> 865 ;
866 [label="SeniorCitizen <= 0.5\ngini = 0.444\nsamples = 3\nvalue = [2, 1]"] ;
865 -> 866 ;
867 [label="gini = 0.0\nsamples = 2\nvalue = [2, 0]"] ;
866 -> 867 ;
868 [label="gini = 0.0\nsamples = 1\nvalue = [0, 1]"] ;
866 -> 868 ;
869 [label="gini = 0.0\nsamples = 9\nvalue = [9, 0]"] ;
865 -> 869 ;
870 [label="gini = 0.0\nsamples = 1\nvalue = [0, 1]"] ;
864 -> 870 ;
871 [label="MonthlyCharges <= 78.225\ngini = 0.41\nsamples = 118\nvalue = [34, 84]"] ;
863 -> 871 ;
872 [label="Partner <= 0.5\ngini = 0.5\nsamples = 28\nvalue = [14, 14]"] ;
871 -> 872 ;
873 [label="TotalCharges <= 1036.225\ngini = 0.375\nsamples = 16\nvalue = [12, 4]"] ;
872 -> 873 ;
874 [label="MonthlyCharges <= 72.0\ngini = 0.444\nsamples = 3\nvalue = [1, 2]"] ;
873 -> 874 ;
875 [label="gini = 0.0\nsamples = 1\nvalue = [1, 0]"] ;
874 -> 875 ;
876 [label="gini = 0.0\nsamples = 2\nvalue = [0, 2]"] ;
874 -> 876 ;
877 [label="PhoneService <= 0.5\ngini = 0.26\nsamples = 13\nvalue = [11, 2]"] ;
873 -> 877 ;
878 [label="gini = 0.0\nsamples = 10\nvalue = [10, 0]"] ;
877 -> 878 ;
879 [label="SeniorCitizen <= 0.5\ngini = 0.444\nsamples = 3\nvalue = [1, 2]"] ;
877 -> 879 ;
880 [label="gini = 0.0\nsamples = 1\nvalue = [1, 0]"] ;
879 -> 880 ;
881 [label="gini = 0.0\nsamples = 2\nvalue = [0, 2]"] ;
879 -> 881 ;
882 [label="TotalCharges <= 1025.05\ngini = 0.278\nsamples = 12\nvalue = [2, 10]"] ;
872 -> 882 ;
883 [label="MonthlyCharges <= 74.7\ngini = 0.444\nsamples = 3\nvalue = [1, 2]"] ;
882 -> 883 ;
884 [label="gini = 0.0\nsamples = 2\nvalue = [0, 2]"] ;
883 -> 884 ;
885 [label="gini = 0.0\nsamples = 1\nvalue = [1, 0]"] ;
883 -> 885 ;
886 [label="MonthlyCharges <= 73.6\ngini = 0.198\nsamples = 9\nvalue = [1, 8]"] ;
882 -> 886 ;
887 [label="MonthlyCharges <= 71.325\ngini = 0.5\nsamples = 2\nvalue = [1, 1]"] ;
886 -> 887 ;
888 [label="gini = 0.0\nsamples = 1\nvalue = [0, 1]"] ;
887 -> 888 ;
889 [label="gini = 0.0\nsamples = 1\nvalue = [1, 0]"] ;
887 -> 889 ;
890 [label="gini = 0.0\nsamples = 7\nvalue = [0, 7]"] ;
886 -> 890 ;
891 [label="TotalCharges <= 1444.15\ngini = 0.346\nsamples = 90\nvalue = [20, 70]"] ;
871 -> 891 ;
892 [label="TotalCharges <= 1427.5\ngini = 0.388\nsamples = 76\nvalue = [20, 56]"] ;
891 -> 892 ;
893 [label="TotalCharges <= 1058.075\ngini = 0.368\nsamples = 74\nvalue = [18, 56]"] ;
892 -> 893 ;
894 [label="TotalCharges <= 1013.025\ngini = 0.49\nsamples = 14\nvalue = [6, 8]"] ;
893 -> 894 ;
895 [label="PhoneService <= 0.5\ngini = 0.245\nsamples = 7\nvalue = [1, 6]"] ;
894 -> 895 ;
896 [label="gini = 0.0\nsamples = 5\nvalue = [0, 5]"] ;
895 -> 896 ;
897 [label="Contract <= 1.0\ngini = 0.5\nsamples = 2\nvalue = [1, 1]"] ;
895 -> 897 ;
898 [label="gini = 0.0\nsamples = 1\nvalue = [0, 1]"] ;
897 -> 898 ;
899 [label="gini = 0.0\nsamples = 1\nvalue = [1, 0]"] ;
897 -> 899 ;
900 [label="TotalCharges <= 1029.325\ngini = 0.408\nsamples = 7\nvalue = [5, 2]"] ;
894 -> 900 ;
901 [label="gini = 0.0\nsamples = 4\nvalue = [4, 0]"] ;
900 -> 901 ;
902 [label="TotalCharges <= 1051.825\ngini = 0.444\nsamples = 3\nvalue = [1, 2]"] ;
900 -> 902 ;
903 [label="gini = 0.0\nsamples = 2\nvalue = [0, 2]"] ;
902 -> 903 ;
904 [label="gini = 0.0\nsamples = 1\nvalue = [1, 0]"] ;
902 -> 904 ;
905 [label="TotalCharges <= 1168.2\ngini = 0.32\nsamples = 60\nvalue = [12, 48]"] ;
893 -> 905 ;
906 [label="gini = 0.0\nsamples = 22\nvalue = [0, 22]"] ;
905 -> 906 ;
907 [label="MonthlyCharges <= 91.0\ngini = 0.432\nsamples = 38\nvalue = [12, 26]"] ;
905 -> 907 ;
908 [label="TechSupport <= 1.0\ngini = 0.278\nsamples = 18\nvalue = [3, 15]"] ;
907 -> 908 ;
909 [label="gini = 0.0\nsamples = 12\nvalue = [0, 12]"] ;
908 -> 909 ;
910 [label="Partner <= 0.5\ngini = 0.5\nsamples = 6\nvalue = [3, 3]"] ;
908 -> 910 ;
911 [label="PaperlessBilling <= 1.0\ngini = 0.375\nsamples = 4\nvalue = [3, 1]"] ;
910 -> 911 ;
912 [label="gini = 0.0\nsamples = 3\nvalue = [3, 0]"] ;
911 -> 912 ;
913 [label="gini = 0.0\nsamples = 1\nvalue = [0, 1]"] ;
911 -> 913 ;
914 [label="gini = 0.0\nsamples = 2\nvalue = [0, 2]"] ;
910 -> 914 ;
915 [label="OnlineSecurity <= 1.0\ngini = 0.495\nsamples = 20\nvalue = [9, 11]"] ;
907 -> 915 ;
916 [label="gini = 0.0\nsamples = 4\nvalue = [4, 0]"] ;
915 -> 916 ;
917 [label="TotalCharges <= 1191.6\ngini = 0.43\nsamples = 16\nvalue = [5, 11]"] ;
915 -> 917 ;
918 [label="gini = 0.0\nsamples = 2\nvalue = [2, 0]"] ;
917 -> 918 ;
919 [label="MultipleLines <= 13.5\ngini = 0.337\nsamples = 14\nvalue = [3, 11]"] ;
917 -> 919 ;
920 [label="gini = 0.0\nsamples = 8\nvalue = [0, 8]"] ;
919 -> 920 ;
921 [label="MonthlyCharges <= 100.175\ngini = 0.5\nsamples = 6\nvalue = [3, 3]"] ;
919 -> 921 ;
922 [label="StreamingMovies <= 1.0\ngini = 0.375\nsamples = 4\nvalue = [3, 1]"] ;
921 -> 922 ;
923 [label="gini = 0.0\nsamples = 3\nvalue = [3, 0]"] ;
922 -> 923 ;
924 [label="gini = 0.0\nsamples = 1\nvalue = [0, 1]"] ;
922 -> 924 ;
925 [label="gini = 0.0\nsamples = 2\nvalue = [0, 2]"] ;
921 -> 925 ;
926 [label="gini = 0.0\nsamples = 2\nvalue = [2, 0]"] ;
892 -> 926 ;
927 [label="gini = 0.0\nsamples = 14\nvalue = [0, 14]"] ;
891 -> 927 ;
928 [label="OnlineSecurity <= 1.0\ngini = 0.5\nsamples = 363\nvalue = [184, 179]"] ;
862 -> 928 ;
929 [label="TotalCharges <= 2593.975\ngini = 0.468\nsamples = 91\nvalue = [57, 34]"] ;
928 -> 929 ;
930 [label="MultipleLines <= 28.5\ngini = 0.498\nsamples = 53\nvalue = [28, 25]"] ;
929 -> 930 ;
931 [label="MonthlyCharges <= 82.375\ngini = 0.478\nsamples = 43\nvalue = [26, 17]"] ;
930 -> 931 ;
932 [label="TotalCharges <= 1597.65\ngini = 0.26\nsamples = 13\nvalue = [11, 2]"] ;
931 -> 932 ;
933 [label="gini = 0.0\nsamples = 1\nvalue = [0, 1]"] ;
932 -> 933 ;
934 [label="tenure <= 2.5\ngini = 0.153\nsamples = 12\nvalue = [11, 1]"] ;
932 -> 934 ;
935 [label="gini = 0.0\nsamples = 10\nvalue = [10, 0]"] ;
934 -> 935 ;
936 [label="MultipleLines <= 26.0\ngini = 0.5\nsamples = 2\nvalue = [1, 1]"] ;
934 -> 936 ;
937 [label="gini = 0.0\nsamples = 1\nvalue = [0, 1]"] ;
936 -> 937 ;
938 [label="gini = 0.0\nsamples = 1\nvalue = [1, 0]"] ;
936 -> 938 ;
939 [label="MonthlyCharges <= 85.2\ngini = 0.5\nsamples = 30\nvalue = [15, 15]"] ;
931 -> 939 ;
940 [label="gini = 0.0\nsamples = 4\nvalue = [0, 4]"] ;
939 -> 940 ;
941 [label="MonthlyCharges <= 87.525\ngini = 0.488\nsamples = 26\nvalue = [15, 11]"] ;
939 -> 941 ;
942 [label="gini = 0.0\nsamples = 6\nvalue = [6, 0]"] ;
941 -> 942 ;
943 [label="MonthlyCharges <= 89.875\ngini = 0.495\nsamples = 20\nvalue = [9, 11]"] ;
941 -> 943 ;
944 [label="gini = 0.0\nsamples = 4\nvalue = [0, 4]"] ;
943 -> 944 ;
945 [label="PhoneService <= 0.5\ngini = 0.492\nsamples = 16\nvalue = [9, 7]"] ;
943 -> 945 ;
946 [label="MultipleLines <= 22.5\ngini = 0.459\nsamples = 14\nvalue = [9, 5]"] ;
945 -> 946 ;
947 [label="MultipleLines <= 15.5\ngini = 0.245\nsamples = 7\nvalue = [6, 1]"] ;
946 -> 947 ;
948 [label="gini = 0.0\nsamples = 1\nvalue = [0, 1]"] ;
947 -> 948 ;
949 [label="gini = 0.0\nsamples = 6\nvalue = [6, 0]"] ;
947 -> 949 ;
950 [label="Partner <= 0.5\ngini = 0.49\nsamples = 7\nvalue = [3, 4]"] ;
946 -> 950 ;
951 [label="TotalCharges <= 2317.1\ngini = 0.48\nsamples = 5\nvalue = [3, 2]"] ;
950 -> 951 ;
952 [label="MultipleLines <= 23.5\ngini = 0.444\nsamples = 3\nvalue = [1, 2]"] ;
951 -> 952 ;
953 [label="gini = 0.0\nsamples = 1\nvalue = [1, 0]"] ;
952 -> 953 ;
954 [label="gini = 0.0\nsamples = 2\nvalue = [0, 2]"] ;
952 -> 954 ;
955 [label="gini = 0.0\nsamples = 2\nvalue = [2, 0]"] ;
951 -> 955 ;
956 [label="gini = 0.0\nsamples = 2\nvalue = [0, 2]"] ;
950 -> 956 ;
957 [label="gini = 0.0\nsamples = 2\nvalue = [0, 2]"] ;
945 -> 957 ;
958 [label="MultipleLines <= 34.5\ngini = 0.32\nsamples = 10\nvalue = [2, 8]"] ;
930 -> 958 ;
959 [label="gini = 0.0\nsamples = 7\nvalue = [0, 7]"] ;
958 -> 959 ;
960 [label="MonthlyCharges <= 70.325\ngini = 0.444\nsamples = 3\nvalue = [2, 1]"] ;
958 -> 960 ;
961 [label="gini = 0.0\nsamples = 1\nvalue = [0, 1]"] ;
960 -> 961 ;
962 [label="gini = 0.0\nsamples = 2\nvalue = [2, 0]"] ;
960 -> 962 ;
963 [label="MultipleLines <= 42.5\ngini = 0.361\nsamples = 38\nvalue = [29, 9]"] ;
929 -> 963 ;
964 [label="MultipleLines <= 31.5\ngini = 0.188\nsamples = 19\nvalue = [17, 2]"] ;
963 -> 964 ;
965 [label="MultipleLines <= 29.5\ngini = 0.48\nsamples = 5\nvalue = [3, 2]"] ;
964 -> 965 ;
966 [label="gini = 0.0\nsamples = 2\nvalue = [2, 0]"] ;
965 -> 966 ;
967 [label="MonthlyCharges <= 100.15\ngini = 0.444\nsamples = 3\nvalue = [1, 2]"] ;
965 -> 967 ;
968 [label="gini = 0.0\nsamples = 2\nvalue = [0, 2]"] ;
967 -> 968 ;
969 [label="gini = 0.0\nsamples = 1\nvalue = [1, 0]"] ;
967 -> 969 ;
970 [label="gini = 0.0\nsamples = 14\nvalue = [14, 0]"] ;
964 -> 970 ;
971 [label="TotalCharges <= 4165.65\ngini = 0.465\nsamples = 19\nvalue = [12, 7]"] ;
963 -> 971 ;
972 [label="MultipleLines <= 45.5\ngini = 0.469\nsamples = 8\nvalue = [3, 5]"] ;
971 -> 972 ;
973 [label="tenure <= 2.5\ngini = 0.375\nsamples = 4\nvalue = [3, 1]"] ;
972 -> 973 ;
974 [label="gini = 0.0\nsamples = 3\nvalue = [3, 0]"] ;
973 -> 974 ;
975 [label="gini = 0.0\nsamples = 1\nvalue = [0, 1]"] ;
973 -> 975 ;
976 [label="gini = 0.0\nsamples = 4\nvalue = [0, 4]"] ;
972 -> 976 ;
977 [label="MonthlyCharges <= 99.25\ngini = 0.298\nsamples = 11\nvalue = [9, 2]"] ;
971 -> 977 ;
978 [label="gini = 0.0\nsamples = 8\nvalue = [8, 0]"] ;
977 -> 978 ;
979 [label="TotalCharges <= 4394.7\ngini = 0.444\nsamples = 3\nvalue = [1, 2]"] ;
977 -> 979 ;
980 [label="gini = 0.0\nsamples = 1\nvalue = [1, 0]"] ;
979 -> 980 ;
981 [label="gini = 0.0\nsamples = 2\nvalue = [0, 2]"] ;
979 -> 981 ;
982 [label="SeniorCitizen <= 0.5\ngini = 0.498\nsamples = 272\nvalue = [127, 145]"] ;
928 -> 982 ;
983 [label="TotalCharges <= 5663.6\ngini = 0.431\nsamples = 35\nvalue = [24, 11]"] ;
982 -> 983 ;
984 [label="MultipleLines <= 31.5\ngini = 0.383\nsamples = 31\nvalue = [23, 8]"] ;
983 -> 984 ;
985 [label="StreamingTV <= 1.0\ngini = 0.497\nsamples = 13\nvalue = [7, 6]"] ;
984 -> 985 ;
986 [label="TotalCharges <= 2517.4\ngini = 0.278\nsamples = 6\nvalue = [5, 1]"] ;
985 -> 986 ;
987 [label="gini = 0.0\nsamples = 5\nvalue = [5, 0]"] ;
986 -> 987 ;
988 [label="gini = 0.0\nsamples = 1\nvalue = [0, 1]"] ;
986 -> 988 ;
989 [label="TotalCharges <= 3058.2\ngini = 0.408\nsamples = 7\nvalue = [2, 5]"] ;
985 -> 989 ;
990 [label="Contract <= 1.0\ngini = 0.278\nsamples = 6\nvalue = [1, 5]"] ;
989 -> 990 ;
991 [label="MultipleLines <= 21.0\ngini = 0.5\nsamples = 2\nvalue = [1, 1]"] ;
990 -> 991 ;
992 [label="gini = 0.0\nsamples = 1\nvalue = [0, 1]"] ;
991 -> 992 ;
993 [label="gini = 0.0\nsamples = 1\nvalue = [1, 0]"] ;
991 -> 993 ;
994 [label="gini = 0.0\nsamples = 4\nvalue = [0, 4]"] ;
990 -> 994 ;
995 [label="gini = 0.0\nsamples = 1\nvalue = [1, 0]"] ;
989 -> 995 ;
996 [label="MonthlyCharges <= 77.275\ngini = 0.198\nsamples = 18\nvalue = [16, 2]"] ;
984 -> 996 ;
997 [label="gini = 0.0\nsamples = 1\nvalue = [0, 1]"] ;
996 -> 997 ;
998 [label="PhoneService <= 0.5\ngini = 0.111\nsamples = 17\nvalue = [16, 1]"] ;
996 -> 998 ;
999 [label="gini = 0.0\nsamples = 15\nvalue = [15, 0]"] ;
998 -> 999 ;
1000 [label="TechSupport <= 1.0\ngini = 0.5\nsamples = 2\nvalue = [1, 1]"] ;
998 -> 1000 ;
1001 [label="gini = 0.0\nsamples = 1\nvalue = [0, 1]"] ;
1000 -> 1001 ;
1002 [label="gini = 0.0\nsamples = 1\nvalue = [1, 0]"] ;
1000 -> 1002 ;
1003 [label="MultipleLines <= 61.0\ngini = 0.375\nsamples = 4\nvalue = [1, 3]"] ;
983 -> 1003 ;
1004 [label="gini = 0.0\nsamples = 3\nvalue = [0, 3]"] ;
1003 -> 1004 ;
1005 [label="gini = 0.0\nsamples = 1\nvalue = [1, 0]"] ;
1003 -> 1005 ;
1006 [label="MonthlyCharges <= 109.75\ngini = 0.491\nsamples = 237\nvalue = [103, 134]"] ;
982 -> 1006 ;
1007 [label="TotalCharges <= 1630.05\ngini = 0.488\nsamples = 230\nvalue = [97, 133]"] ;
1006 -> 1007 ;
1008 [label="Dependents <= 0.5\ngini = 0.375\nsamples = 8\nvalue = [6, 2]"] ;
1007 -> 1008 ;
1009 [label="MultipleLines <= 16.5\ngini = 0.444\nsamples = 3\nvalue = [1, 2]"] ;
1008 -> 1009 ;
1010 [label="gini = 0.0\nsamples = 1\nvalue = [0, 1]"] ;
1009 -> 1010 ;
1011 [label="Partner <= 0.5\ngini = 0.5\nsamples = 2\nvalue = [1, 1]"] ;
1009 -> 1011 ;
1012 [label="gini = 0.0\nsamples = 1\nvalue = [0, 1]"] ;
1011 -> 1012 ;
1013 [label="gini = 0.0\nsamples = 1\nvalue = [1, 0]"] ;
1011 -> 1013 ;
1014 [label="gini = 0.0\nsamples = 5\nvalue = [5, 0]"] ;
1008 -> 1014 ;
1015 [label="TotalCharges <= 1735.975\ngini = 0.484\nsamples = 222\nvalue = [91, 131]"] ;
1007 -> 1015 ;
1016 [label="gini = 0.0\nsamples = 6\nvalue = [0, 6]"] ;
1015 -> 1016 ;
1017 [label="MonthlyCharges <= 84.775\ngini = 0.488\nsamples = 216\nvalue = [91, 125]"] ;
1015 -> 1017 ;
1018 [label="MonthlyCharges <= 79.625\ngini = 0.495\nsamples = 49\nvalue = [27, 22]"] ;
1017 -> 1018 ;
1019 [label="MultipleLines <= 56.0\ngini = 0.455\nsamples = 20\nvalue = [7, 13]"] ;
1018 -> 1019 ;
1020 [label="MultipleLines <= 30.0\ngini = 0.401\nsamples = 18\nvalue = [5, 13]"] ;
1019 -> 1020 ;
1021 [label="MultipleLines <= 28.0\ngini = 0.49\nsamples = 7\nvalue = [4, 3]"] ;
1020 -> 1021 ;
1022 [label="tenure <= 2.5\ngini = 0.375\nsamples = 4\nvalue = [1, 3]"] ;
1021 -> 1022 ;
1023 [label="gini = 0.0\nsamples = 3\nvalue = [0, 3]"] ;
1022 -> 1023 ;
1024 [label="gini = 0.0\nsamples = 1\nvalue = [1, 0]"] ;
1022 -> 1024 ;
1025 [label="gini = 0.0\nsamples = 3\nvalue = [3, 0]"] ;
1021 -> 1025 ;
1026 [label="MultipleLines <= 54.5\ngini = 0.165\nsamples = 11\nvalue = [1, 10]"] ;
1020 -> 1026 ;
1027 [label="gini = 0.0\nsamples = 9\nvalue = [0, 9]"] ;
1026 -> 1027 ;
1028 [label="Partner <= 0.5\ngini = 0.5\nsamples = 2\nvalue = [1, 1]"] ;
1026 -> 1028 ;
1029 [label="gini = 0.0\nsamples = 1\nvalue = [0, 1]"] ;
1028 -> 1029 ;
1030 [label="gini = 0.0\nsamples = 1\nvalue = [1, 0]"] ;
1028 -> 1030 ;
1031 [label="gini = 0.0\nsamples = 2\nvalue = [2, 0]"] ;
1019 -> 1031 ;
1032 [label="gender <= 0.5\ngini = 0.428\nsamples = 29\nvalue = [20, 9]"] ;
1018 -> 1032 ;
1033 [label="StreamingMovies <= 1.0\ngini = 0.198\nsamples = 9\nvalue = [8, 1]"] ;
1032 -> 1033 ;
1034 [label="gini = 0.0\nsamples = 7\nvalue = [7, 0]"] ;
1033 -> 1034 ;
1035 [label="TotalCharges <= 3852.65\ngini = 0.5\nsamples = 2\nvalue = [1, 1]"] ;
1033 -> 1035 ;
1036 [label="gini = 0.0\nsamples = 1\nvalue = [0, 1]"] ;
1035 -> 1036 ;
1037 [label="gini = 0.0\nsamples = 1\nvalue = [1, 0]"] ;
1035 -> 1037 ;
1038 [label="TotalCharges <= 2263.5\ngini = 0.48\nsamples = 20\nvalue = [12, 8]"] ;
1032 -> 1038 ;
1039 [label="MonthlyCharges <= 84.025\ngini = 0.444\nsamples = 9\nvalue = [3, 6]"] ;
1038 -> 1039 ;
1040 [label="Partner <= 0.5\ngini = 0.245\nsamples = 7\nvalue = [1, 6]"] ;
1039 -> 1040 ;
1041 [label="gini = 0.0\nsamples = 5\nvalue = [0, 5]"] ;
1040 -> 1041 ;
1042 [label="TotalCharges <= 2105.25\ngini = 0.5\nsamples = 2\nvalue = [1, 1]"] ;
1040 -> 1042 ;
1043 [label="gini = 0.0\nsamples = 1\nvalue = [1, 0]"] ;
1042 -> 1043 ;
1044 [label="gini = 0.0\nsamples = 1\nvalue = [0, 1]"] ;
1042 -> 1044 ;
1045 [label="gini = 0.0\nsamples = 2\nvalue = [2, 0]"] ;
1039 -> 1045 ;
1046 [label="MonthlyCharges <= 84.7\ngini = 0.298\nsamples = 11\nvalue = [9, 2]"] ;
1038 -> 1046 ;
1047 [label="MultipleLines <= 46.0\ngini = 0.18\nsamples = 10\nvalue = [9, 1]"] ;
1046 -> 1047 ;
1048 [label="gini = 0.0\nsamples = 8\nvalue = [8, 0]"] ;
1047 -> 1048 ;
1049 [label="TotalCharges <= 4914.825\ngini = 0.5\nsamples = 2\nvalue = [1, 1]"] ;
1047 -> 1049 ;
1050 [label="gini = 0.0\nsamples = 1\nvalue = [0, 1]"] ;
1049 -> 1050 ;
1051 [label="gini = 0.0\nsamples = 1\nvalue = [1, 0]"] ;
1049 -> 1051 ;
1052 [label="gini = 0.0\nsamples = 1\nvalue = [0, 1]"] ;
1046 -> 1052 ;
1053 [label="MonthlyCharges <= 100.275\ngini = 0.473\nsamples = 167\nvalue = [64, 103]"] ;
1017 -> 1053 ;
1054 [label="TotalCharges <= 4089.125\ngini = 0.433\nsamples = 104\nvalue = [33, 71]"] ;
1053 -> 1054 ;
1055 [label="TotalCharges <= 3772.4\ngini = 0.461\nsamples = 75\nvalue = [27, 48]"] ;
1054 -> 1055 ;
1056 [label="MonthlyCharges <= 98.95\ngini = 0.415\nsamples = 68\nvalue = [20, 48]"] ;
1055 -> 1056 ;
1057 [label="Partner <= 0.5\ngini = 0.441\nsamples = 61\nvalue = [20, 41]"] ;
1056 -> 1057 ;
1058 [label="MonthlyCharges <= 92.05\ngini = 0.487\nsamples = 31\nvalue = [13, 18]"] ;
1057 -> 1058 ;
1059 [label="TotalCharges <= 3321.8\ngini = 0.36\nsamples = 17\nvalue = [4, 13]"] ;
1058 -> 1059 ;
1060 [label="TotalCharges <= 2570.875\ngini = 0.305\nsamples = 16\nvalue = [3, 13]"] ;
1059 -> 1060 ;
1061 [label="TotalCharges <= 2212.2\ngini = 0.42\nsamples = 10\nvalue = [3, 7]"] ;
1060 -> 1061 ;
1062 [label="PhoneService <= 0.5\ngini = 0.245\nsamples = 7\nvalue = [1, 6]"] ;
1061 -> 1062 ;
1063 [label="gini = 0.0\nsamples = 6\nvalue = [0, 6]"] ;
1062 -> 1063 ;
1064 [label="gini = 0.0\nsamples = 1\nvalue = [1, 0]"] ;
1062 -> 1064 ;
1065 [label="Dependents <= 0.5\ngini = 0.444\nsamples = 3\nvalue = [2, 1]"] ;
1061 -> 1065 ;
1066 [label="gini = 0.0\nsamples = 2\nvalue = [2, 0]"] ;
1065 -> 1066 ;
1067 [label="gini = 0.0\nsamples = 1\nvalue = [0, 1]"] ;
1065 -> 1067 ;
1068 [label="gini = 0.0\nsamples = 6\nvalue = [0, 6]"] ;
1060 -> 1068 ;
1069 [label="gini = 0.0\nsamples = 1\nvalue = [1, 0]"] ;
1059 -> 1069 ;
1070 [label="MonthlyCharges <= 94.425\ngini = 0.459\nsamples = 14\nvalue = [9, 5]"] ;
1058 -> 1070 ;
1071 [label="gini = 0.0\nsamples = 5\nvalue = [5, 0]"] ;
1070 -> 1071 ;
1072 [label="StreamingTV <= 1.0\ngini = 0.494\nsamples = 9\nvalue = [4, 5]"] ;
1070 -> 1072 ;
1073 [label="gender <= 0.5\ngini = 0.444\nsamples = 6\nvalue = [4, 2]"] ;
1072 -> 1073 ;
1074 [label="MonthlyCharges <= 98.25\ngini = 0.444\nsamples = 3\nvalue = [1, 2]"] ;
1073 -> 1074 ;
1075 [label="gini = 0.0\nsamples = 2\nvalue = [0, 2]"] ;
1074 -> 1075 ;
1076 [label="gini = 0.0\nsamples = 1\nvalue = [1, 0]"] ;
1074 -> 1076 ;
1077 [label="gini = 0.0\nsamples = 3\nvalue = [3, 0]"] ;
1073 -> 1077 ;
1078 [label="gini = 0.0\nsamples = 3\nvalue = [0, 3]"] ;
1072 -> 1078 ;
1079 [label="PaperlessBilling <= 1.0\ngini = 0.358\nsamples = 30\nvalue = [7, 23]"] ;
1057 -> 1079 ;
1080 [label="MultipleLines <= 28.0\ngini = 0.5\nsamples = 8\nvalue = [4, 4]"] ;
1079 -> 1080 ;
1081 [label="gini = 0.0\nsamples = 4\nvalue = [0, 4]"] ;
1080 -> 1081 ;
1082 [label="gini = 0.0\nsamples = 4\nvalue = [4, 0]"] ;
1080 -> 1082 ;
1083 [label="MultipleLines <= 19.5\ngini = 0.236\nsamples = 22\nvalue = [3, 19]"] ;
1079 -> 1083 ;
1084 [label="Dependents <= 0.5\ngini = 0.5\nsamples = 2\nvalue = [1, 1]"] ;
1083 -> 1084 ;
1085 [label="gini = 0.0\nsamples = 1\nvalue = [0, 1]"] ;
1084 -> 1085 ;
1086 [label="gini = 0.0\nsamples = 1\nvalue = [1, 0]"] ;
1084 -> 1086 ;
1087 [label="MonthlyCharges <= 93.725\ngini = 0.18\nsamples = 20\nvalue = [2, 18]"] ;
1083 -> 1087 ;
1088 [label="MonthlyCharges <= 93.35\ngini = 0.375\nsamples = 8\nvalue = [2, 6]"] ;
1087 -> 1088 ;
1089 [label="gini = 0.0\nsamples = 5\nvalue = [0, 5]"] ;
1088 -> 1089 ;
1090 [label="MultipleLines <= 25.0\ngini = 0.444\nsamples = 3\nvalue = [2, 1]"] ;
1088 -> 1090 ;
1091 [label="gini = 0.0\nsamples = 1\nvalue = [0, 1]"] ;
1090 -> 1091 ;
1092 [label="gini = 0.0\nsamples = 2\nvalue = [2, 0]"] ;
1090 -> 1092 ;
1093 [label="gini = 0.0\nsamples = 12\nvalue = [0, 12]"] ;
1087 -> 1093 ;
1094 [label="gini = 0.0\nsamples = 7\nvalue = [0, 7]"] ;
1056 -> 1094 ;
1095 [label="gini = 0.0\nsamples = 7\nvalue = [7, 0]"] ;
1055 -> 1095 ;
1096 [label="MultipleLines <= 48.0\ngini = 0.328\nsamples = 29\nvalue = [6, 23]"] ;
1054 -> 1096 ;
1097 [label="gini = 0.0\nsamples = 7\nvalue = [0, 7]"] ;
1096 -> 1097 ;
1098 [label="TotalCharges <= 4756.625\ngini = 0.397\nsamples = 22\nvalue = [6, 16]"] ;
1096 -> 1098 ;
1099 [label="Dependents <= 0.5\ngini = 0.444\nsamples = 3\nvalue = [2, 1]"] ;
1098 -> 1099 ;
1100 [label="gini = 0.0\nsamples = 2\nvalue = [2, 0]"] ;
1099 -> 1100 ;
1101 [label="gini = 0.0\nsamples = 1\nvalue = [0, 1]"] ;
1099 -> 1101 ;
1102 [label="TotalCharges <= 4888.95\ngini = 0.332\nsamples = 19\nvalue = [4, 15]"] ;
1098 -> 1102 ;
1103 [label="gini = 0.0\nsamples = 6\nvalue = [0, 6]"] ;
1102 -> 1103 ;
1104 [label="MultipleLines <= 50.0\ngini = 0.426\nsamples = 13\nvalue = [4, 9]"] ;
1102 -> 1104 ;
1105 [label="gini = 0.0\nsamples = 1\nvalue = [1, 0]"] ;
1104 -> 1105 ;
1106 [label="MultipleLines <= 60.5\ngini = 0.375\nsamples = 12\nvalue = [3, 9]"] ;
1104 -> 1106 ;
1107 [label="TotalCharges <= 5899.175\ngini = 0.444\nsamples = 9\nvalue = [3, 6]"] ;
1106 -> 1107 ;
1108 [label="MonthlyCharges <= 92.25\ngini = 0.245\nsamples = 7\nvalue = [1, 6]"] ;
1107 -> 1108 ;
1109 [label="gini = 0.0\nsamples = 1\nvalue = [1, 0]"] ;
1108 -> 1109 ;
1110 [label="gini = 0.0\nsamples = 6\nvalue = [0, 6]"] ;
1108 -> 1110 ;
1111 [label="gini = 0.0\nsamples = 2\nvalue = [2, 0]"] ;
1107 -> 1111 ;
1112 [label="gini = 0.0\nsamples = 3\nvalue = [0, 3]"] ;
1106 -> 1112 ;
1113 [label="MonthlyCharges <= 104.55\ngini = 0.5\nsamples = 63\nvalue = [31, 32]"] ;
1053 -> 1113 ;
1114 [label="MonthlyCharges <= 104.3\ngini = 0.475\nsamples = 36\nvalue = [22, 14]"] ;
1113 -> 1114 ;
1115 [label="MonthlyCharges <= 100.825\ngini = 0.495\nsamples = 31\nvalue = [17, 14]"] ;
1114 -> 1115 ;
1116 [label="gini = 0.0\nsamples = 4\nvalue = [4, 0]"] ;
1115 -> 1116 ;
1117 [label="MonthlyCharges <= 101.2\ngini = 0.499\nsamples = 27\nvalue = [13, 14]"] ;
1115 -> 1117 ;
1118 [label="gini = 0.0\nsamples = 4\nvalue = [0, 4]"] ;
1117 -> 1118 ;
1119 [label="TotalCharges <= 6523.525\ngini = 0.491\nsamples = 23\nvalue = [13, 10]"] ;
1117 -> 1119 ;
1120 [label="TotalCharges <= 4831.575\ngini = 0.472\nsamples = 21\nvalue = [13, 8]"] ;
1119 -> 1120 ;
1121 [label="TotalCharges <= 4110.625\ngini = 0.498\nsamples = 17\nvalue = [9, 8]"] ;
1120 -> 1121 ;
1122 [label="MultipleLines <= 28.5\ngini = 0.459\nsamples = 14\nvalue = [9, 5]"] ;
1121 -> 1122 ;
1123 [label="MultipleLines <= 20.0\ngini = 0.375\nsamples = 4\nvalue = [1, 3]"] ;
1122 -> 1123 ;
1124 [label="gini = 0.0\nsamples = 1\nvalue = [1, 0]"] ;
1123 -> 1124 ;
1125 [label="gini = 0.0\nsamples = 3\nvalue = [0, 3]"] ;
1123 -> 1125 ;
1126 [label="TotalCharges <= 3415.6\ngini = 0.32\nsamples = 10\nvalue = [8, 2]"] ;
1122 -> 1126 ;
1127 [label="gini = 0.0\nsamples = 5\nvalue = [5, 0]"] ;
1126 -> 1127 ;
1128 [label="TotalCharges <= 4001.825\ngini = 0.48\nsamples = 5\nvalue = [3, 2]"] ;
1126 -> 1128 ;
1129 [label="MonthlyCharges <= 103.55\ngini = 0.444\nsamples = 3\nvalue = [1, 2]"] ;
1128 -> 1129 ;
1130 [label="gini = 0.0\nsamples = 2\nvalue = [0, 2]"] ;
1129 -> 1130 ;
1131 [label="gini = 0.0\nsamples = 1\nvalue = [1, 0]"] ;
1129 -> 1131 ;
1132 [label="gini = 0.0\nsamples = 2\nvalue = [2, 0]"] ;
1128 -> 1132 ;
1133 [label="gini = 0.0\nsamples = 3\nvalue = [0, 3]"] ;
1121 -> 1133 ;
1134 [label="gini = 0.0\nsamples = 4\nvalue = [4, 0]"] ;
1120 -> 1134 ;
1135 [label="gini = 0.0\nsamples = 2\nvalue = [0, 2]"] ;
1119 -> 1135 ;
1136 [label="gini = 0.0\nsamples = 5\nvalue = [5, 0]"] ;
1114 -> 1136 ;
1137 [label="TotalCharges <= 6398.85\ngini = 0.444\nsamples = 27\nvalue = [9, 18]"] ;
1113 -> 1137 ;
1138 [label="PhoneService <= 0.5\ngini = 0.332\nsamples = 19\nvalue = [4, 15]"] ;
1137 -> 1138 ;
1139 [label="StreamingTV <= 1.0\ngini = 0.208\nsamples = 17\nvalue = [2, 15]"] ;
1138 -> 1139 ;
1140 [label="gini = 0.0\nsamples = 1\nvalue = [1, 0]"] ;
1139 -> 1140 ;
1141 [label="Partner <= 0.5\ngini = 0.117\nsamples = 16\nvalue = [1, 15]"] ;
1139 -> 1141 ;
1142 [label="gini = 0.0\nsamples = 13\nvalue = [0, 13]"] ;
1141 -> 1142 ;
1143 [label="MultipleLines <= 44.5\ngini = 0.444\nsamples = 3\nvalue = [1, 2]"] ;
1141 -> 1143 ;
1144 [label="gini = 0.0\nsamples = 2\nvalue = [0, 2]"] ;
1143 -> 1144 ;
1145 [label="gini = 0.0\nsamples = 1\nvalue = [1, 0]"] ;
1143 -> 1145 ;
1146 [label="gini = 0.0\nsamples = 2\nvalue = [2, 0]"] ;
1138 -> 1146 ;
1147 [label="TotalCharges <= 6939.025\ngini = 0.469\nsamples = 8\nvalue = [5, 3]"] ;
1137 -> 1147 ;
1148 [label="gini = 0.0\nsamples = 5\nvalue = [5, 0]"] ;
1147 -> 1148 ;
1149 [label="gini = 0.0\nsamples = 3\nvalue = [0, 3]"] ;
1147 -> 1149 ;
1150 [label="TotalCharges <= 2760.75\ngini = 0.245\nsamples = 7\nvalue = [6, 1]"] ;
1006 -> 1150 ;
1151 [label="gini = 0.0\nsamples = 1\nvalue = [0, 1]"] ;
1150 -> 1151 ;
1152 [label="gini = 0.0\nsamples = 6\nvalue = [6, 0]"] ;
1150 -> 1152 ;
1153 [label="MonthlyCharges <= 91.725\ngini = 0.375\nsamples = 937\nvalue = [703, 234]"] ;
1 -> 1153 ;
1154 [label="MultipleLines <= 1.5\ngini = 0.34\nsamples = 797\nvalue = [624, 173]"] ;
1153 -> 1154 ;
1155 [label="Partner <= 0.5\ngini = 0.475\nsamples = 142\nvalue = [87, 55]"] ;
1154 -> 1155 ;
1156 [label="TotalCharges <= 72.025\ngini = 0.464\nsamples = 137\nvalue = [87, 50]"] ;
1155 -> 1156 ;
1157 [label="TotalCharges <= 19.775\ngini = 0.452\nsamples = 133\nvalue = [87, 46]"] ;
1156 -> 1157 ;
1158 [label="tenure <= 1.5\ngini = 0.349\nsamples = 40\nvalue = [31, 9]"] ;
1157 -> 1158 ;
1159 [label="gini = 0.0\nsamples = 7\nvalue = [7, 0]"] ;
1158 -> 1159 ;
1160 [label="SeniorCitizen <= 0.5\ngini = 0.397\nsamples = 33\nvalue = [24, 9]"] ;
1158 -> 1160 ;
1161 [label="TotalCharges <= 19.225\ngini = 0.435\nsamples = 25\nvalue = [17, 8]"] ;
1160 -> 1161 ;
1162 [label="gini = 0.0\nsamples = 5\nvalue = [5, 0]"] ;
1161 -> 1162 ;
1163 [label="TotalCharges <= 19.375\ngini = 0.48\nsamples = 20\nvalue = [12, 8]"] ;
1161 -> 1163 ;
1164 [label="gini = 0.0\nsamples = 2\nvalue = [0, 2]"] ;
1163 -> 1164 ;
1165 [label="tenure <= 2.5\ngini = 0.444\nsamples = 18\nvalue = [12, 6]"] ;
1163 -> 1165 ;
1166 [label="gini = 0.0\nsamples = 3\nvalue = [3, 0]"] ;
1165 -> 1166 ;
1167 [label="MonthlyCharges <= 19.475\ngini = 0.48\nsamples = 15\nvalue = [9, 6]"] ;
1165 -> 1167 ;
1168 [label="gini = 0.0\nsamples = 1\nvalue = [0, 1]"] ;
1167 -> 1168 ;
1169 [label="Dependents <= 0.5\ngini = 0.459\nsamples = 14\nvalue = [9, 5]"] ;
1167 -> 1169 ;
1170 [label="PhoneService <= 0.5\ngini = 0.473\nsamples = 13\nvalue = [8, 5]"] ;
1169 -> 1170 ;
1171 [label="TotalCharges <= 19.725\ngini = 0.444\nsamples = 12\nvalue = [8, 4]"] ;
1170 -> 1171 ;
1172 [label="TotalCharges <= 19.675\ngini = 0.48\nsamples = 10\nvalue = [6, 4]"] ;
1171 -> 1172 ;
1173 [label="MonthlyCharges <= 19.525\ngini = 0.444\nsamples = 9\nvalue = [6, 3]"] ;
1172 -> 1173 ;
1174 [label="gini = 0.5\nsamples = 2\nvalue = [1, 1]"] ;
1173 -> 1174 ;
1175 [label="MonthlyCharges <= 19.6\ngini = 0.408\nsamples = 7\nvalue = [5, 2]"] ;
1173 -> 1175 ;
1176 [label="gender <= 0.5\ngini = 0.375\nsamples = 4\nvalue = [3, 1]"] ;
1175 -> 1176 ;
1177 [label="gini = 0.0\nsamples = 2\nvalue = [2, 0]"] ;
1176 -> 1177 ;
1178 [label="gini = 0.5\nsamples = 2\nvalue = [1, 1]"] ;
1176 -> 1178 ;
1179 [label="gender <= 0.5\ngini = 0.444\nsamples = 3\nvalue = [2, 1]"] ;
1175 -> 1179 ;
1180 [label="gini = 0.5\nsamples = 2\nvalue = [1, 1]"] ;
1179 -> 1180 ;
1181 [label="gini = 0.0\nsamples = 1\nvalue = [1, 0]"] ;
1179 -> 1181 ;
1182 [label="gini = 0.0\nsamples = 1\nvalue = [0, 1]"] ;
1172 -> 1182 ;
1183 [label="gini = 0.0\nsamples = 2\nvalue = [2, 0]"] ;
1171 -> 1183 ;
1184 [label="gini = 0.0\nsamples = 1\nvalue = [0, 1]"] ;
1170 -> 1184 ;
1185 [label="gini = 0.0\nsamples = 1\nvalue = [1, 0]"] ;
1169 -> 1185 ;
1186 [label="MonthlyCharges <= 18.925\ngini = 0.219\nsamples = 8\nvalue = [7, 1]"] ;
1160 -> 1186 ;
1187 [label="gini = 0.0\nsamples = 1\nvalue = [0, 1]"] ;
1186 -> 1187 ;
1188 [label="gini = 0.0\nsamples = 7\nvalue = [7, 0]"] ;
1186 -> 1188 ;
1189 [label="MonthlyCharges <= 21.025\ngini = 0.479\nsamples = 93\nvalue = [56, 37]"] ;
1157 -> 1189 ;
1190 [label="tenure <= 1.5\ngini = 0.499\nsamples = 63\nvalue = [33, 30]"] ;
1189 -> 1190 ;
1191 [label="SeniorCitizen <= 0.5\ngini = 0.408\nsamples = 14\nvalue = [10, 4]"] ;
1190 -> 1191 ;
1192 [label="Dependents <= 0.5\ngini = 0.198\nsamples = 9\nvalue = [8, 1]"] ;
1191 -> 1192 ;
1193 [label="gini = 0.0\nsamples = 8\nvalue = [8, 0]"] ;
1192 -> 1193 ;
1194 [label="gini = 0.0\nsamples = 1\nvalue = [0, 1]"] ;
1192 -> 1194 ;
1195 [label="Dependents <= 0.5\ngini = 0.48\nsamples = 5\nvalue = [2, 3]"] ;
1191 -> 1195 ;
1196 [label="gini = 0.0\nsamples = 2\nvalue = [0, 2]"] ;
1195 -> 1196 ;
1197 [label="tenure <= 0.5\ngini = 0.444\nsamples = 3\nvalue = [2, 1]"] ;
1195 -> 1197 ;
1198 [label="gini = 0.0\nsamples = 2\nvalue = [2, 0]"] ;
1197 -> 1198 ;
1199 [label="gini = 0.0\nsamples = 1\nvalue = [0, 1]"] ;
1197 -> 1199 ;
1200 [label="TotalCharges <= 20.475\ngini = 0.498\nsamples = 49\nvalue = [23, 26]"] ;
1190 -> 1200 ;
1201 [label="MonthlyCharges <= 20.325\ngini = 0.498\nsamples = 36\nvalue = [19, 17]"] ;
1200 -> 1201 ;
1202 [label="SeniorCitizen <= 0.5\ngini = 0.49\nsamples = 28\nvalue = [12, 16]"] ;
1201 -> 1202 ;
1203 [label="gender <= 0.5\ngini = 0.498\nsamples = 17\nvalue = [9, 8]"] ;
1202 -> 1203 ;
1204 [label="MonthlyCharges <= 19.95\ngini = 0.32\nsamples = 5\nvalue = [4, 1]"] ;
1203 -> 1204 ;
1205 [label="TotalCharges <= 19.875\ngini = 0.444\nsamples = 3\nvalue = [2, 1]"] ;
1204 -> 1205 ;
1206 [label="gini = 0.0\nsamples = 1\nvalue = [1, 0]"] ;
1205 -> 1206 ;
1207 [label="gini = 0.5\nsamples = 2\nvalue = [1, 1]"] ;
1205 -> 1207 ;
1208 [label="gini = 0.0\nsamples = 2\nvalue = [2, 0]"] ;
1204 -> 1208 ;
1209 [label="TotalCharges <= 19.925\ngini = 0.486\nsamples = 12\nvalue = [5, 7]"] ;
1203 -> 1209 ;
1210 [label="gini = 0.0\nsamples = 2\nvalue = [0, 2]"] ;
1209 -> 1210 ;
1211 [label="TotalCharges <= 19.975\ngini = 0.5\nsamples = 10\nvalue = [5, 5]"] ;
1209 -> 1211 ;
1212 [label="gini = 0.0\nsamples = 1\nvalue = [1, 0]"] ;
1211 -> 1212 ;
1213 [label="TotalCharges <= 20.275\ngini = 0.494\nsamples = 9\nvalue = [4, 5]"] ;
1211 -> 1213 ;
1214 [label="TotalCharges <= 20.025\ngini = 0.469\nsamples = 8\nvalue = [3, 5]"] ;
1213 -> 1214 ;
1215 [label="gini = 0.0\nsamples = 1\nvalue = [0, 1]"] ;
1214 -> 1215 ;
